0001101100100100   //6.78515625
0101011010101100   //21.66796875
0011000011000110   //12.193359375
1000011001101101   //-30.3935546875
1111111100101111   //-0.2041015625
1111110110011001   //-0.6005859375
0000010011111110   //1.248046875
0010001101100000   //8.84375
0011010111101010   //13.478515625
1111010110111111   //-2.5634765625
1111101100000001   //-1.2490234375
0000101011000101   //2.6923828125
0000001110110111   //0.9287109375
0000110001000001   //3.0634765625
0000111100110110   //3.802734375
1111011000000101   //-2.4951171875
0111011100110110   //29.802734375
1010001001011001   //-23.4130859375
1111011001101100   //-2.39453125
1110111110101010   //-4.083984375
1101010100101101   //-10.7060546875
1100010011111100   //-14.75390625
1110000010011011   //-7.8486328125
1111001100111010   //-3.193359375
1111100010000010   //-1.873046875
0000000000101101   //0.0439453125
1111111010110101   //-0.3232421875
1111111000000010   //-0.498046875
1110111100011011   //-4.2236328125
1100111011111000   //-12.2578125
1111111100000100   //-0.24609375
0010100010110111   //10.1787109375
0001000111010000   //4.453125
1001011000101011   //-26.4580078125
1001101111100000   //-25.03125
0000010000111010   //1.056640625
0011010001010011   //13.0810546875
0000101101101110   //2.857421875
1111101011110010   //-1.263671875
0100011001111110   //17.623046875
0000000000101111   //0.0458984375
1111111100001001   //-0.2412109375
1111101100011100   //-1.22265625
0001001111000011   //4.9404296875
0000010100111101   //1.3095703125
1111111101011101   //-0.1591796875
0000010010000001   //1.1259765625
0000011110101010   //1.916015625
1100110010110011   //-12.8251953125
0100111100000001   //19.7509765625
0010000110101001   //8.4150390625
1111100110010000   //-1.609375
0010111110110100   //11.92578125
1111101110101010   //-1.083984375
0000011011101111   //1.7333984375
0011000100110110   //12.302734375
0000010100010100   //1.26953125
0000000000100100   //0.03515625
1111001000001110   //-3.486328125
0010100011100111   //10.2255859375
1111001010100110   //-3.337890625
1110111101001110   //-4.173828125
0000000101010010   //0.330078125
0000010001100001   //1.0947265625
1101110001001100   //-8.92578125
0100101110111010   //18.931640625
1010011010011111   //-22.3447265625
0001100100001000   //6.2578125
0000011001011010   //1.587890625
0000001100011010   //0.775390625
1110001101000111   //-7.1806640625
1111110100110111   //-0.6962890625
0111000110001100   //28.38671875
1110010010111010   //-6.818359375
1110001001011001   //-7.4130859375
0101010010010001   //21.1416015625
1101100100010010   //-9.732421875
0010000100100100   //8.28515625
0000000010111110   //0.185546875
0100111100110001   //19.7978515625
0001000010000101   //4.1298828125
0000000100001000   //0.2578125
1100111111101001   //-12.0224609375
0000101110001001   //2.8837890625
1101110111001110   //-8.548828125
0000000001010111   //0.0849609375
0111011110000101   //29.8798828125
1101110101100110   //-8.650390625
0001111000101011   //7.5419921875
1010110100100111   //-20.7119140625
0000001010011111   //0.6552734375
1111100100001001   //-1.7412109375
1110001110010100   //-7.10546875
1100101001001010   //-13.427734375
0110010100101001   //25.2900390625
1111000111100101   //-3.5263671875
0000000011111110   //0.248046875
1011011000001010   //-18.490234375
1001101111101011   //-25.0205078125
0010101001110110   //10.615234375
1111010101010011   //-2.6689453125
0111111001000010   //31.564453125
0001011101101000   //5.8515625
0000001101011110   //0.841796875
1111010000000101   //-2.9951171875
0000001010010001   //0.6416015625
1110101011111011   //-5.2548828125
1111111010001110   //-0.361328125
1110111111011100   //-4.03515625
1111010010110110   //-2.822265625
0000001111101110   //0.982421875
1111011001000011   //-2.4345703125
1100111001010010   //-12.419921875
1011111110011001   //-16.1005859375
1111001110010001   //-3.1083984375
1101010111001101   //-10.5498046875
0101110101011100   //23.33984375
1111101011111011   //-1.2548828125
0000110111110111   //3.4912109375
0100111001000111   //19.5693359375
1110101111100101   //-5.0263671875
0000101100000101   //2.7548828125
0000010001010010   //1.080078125
0000000000100101   //0.0361328125
1111111110101011   //-0.0830078125
1101111001101111   //-8.3916015625
1110010111001010   //-6.552734375
0010101010111100   //10.68359375
0011001100111011   //12.8076171875
1011010110000010   //-18.623046875
1111101111100111   //-1.0244140625
1111100011011101   //-1.7841796875
1111001011110100   //-3.26171875
0000101100111111   //2.8115234375
0000000101100110   //0.349609375
1010110010100101   //-20.8388671875
1111011001001111   //-2.4228515625
1011101010000000   //-17.375
0000010000101111   //1.0458984375
1110111001011101   //-4.4091796875
0000001101010011   //0.8310546875
0001000101111100   //4.37109375
1100110111110110   //-12.509765625
0000000000011111   //0.0302734375
0000011001000001   //1.5634765625
0010100010011001   //10.1494140625
0000000001110100   //0.11328125
0100111111100100   //19.97265625
1111101010001011   //-1.3642578125
1111011101110000   //-2.140625
0000010110110110   //1.427734375
1110000001000100   //-7.93359375
1101001011011110   //-11.283203125
1111101011101101   //-1.2685546875
0100000000111011   //16.0576171875
0000000111011110   //0.466796875
1000100101101101   //-29.6435546875
0001111111001000   //7.9453125
1111100101100100   //-1.65234375
0000011001011001   //1.5869140625
0001001100111001   //4.8056640625
1111101101110011   //-1.1376953125
1111110100010011   //-0.7314453125
0001101111110110   //6.990234375
0001011100010000   //5.765625
0000001011010011   //0.7060546875
0000010000100110   //1.037109375
1111101110000111   //-1.1181640625
0000100111011000   //2.4609375
0011110011111110   //15.248046875
0000011010000100   //1.62890625
1101111000010011   //-8.4814453125
1111110011111001   //-0.7568359375
1111001110010001   //-3.1083984375
1011010000010011   //-18.9814453125
1111111100011110   //-0.220703125
1111110111010110   //-0.541015625
1110010011110001   //-6.7646484375
1111111111010100   //-0.04296875
0000001101001100   //0.82421875
0000001010000001   //0.6259765625
1111100010100001   //-1.8427734375
1001010011100000   //-26.78125
1110111101101000   //-4.1484375
0000111010001000   //3.6328125
0010000000101101   //8.0439453125
0000100100100000   //2.28125
1111111000011000   //-0.4765625
1111100111110000   //-1.515625
1001000100111001   //-27.6943359375
0001010101000101   //5.3173828125
0000011001001010   //1.572265625
1111110101010101   //-0.6669921875
1011001010111100   //-19.31640625
1101000011100111   //-11.7744140625
0000010111000110   //1.443359375
0000010110011111   //1.4052734375
1110011111101111   //-6.0166015625
1100000001110101   //-15.8857421875
0000000011001011   //0.1982421875
1111011111111011   //-2.0048828125
0001010111000100   //5.44140625
0000000010010110   //0.146484375
0000011110111000   //1.9296875
1111110011101111   //-0.7666015625
0001101100110000   //6.796875
1011000110011000   //-19.6015625
1111101110100101   //-1.0888671875
1100100010000011   //-13.8720703125
1111111110110101   //-0.0732421875
0000100100010110   //2.271484375
0010100110010000   //10.390625
1001000101111101   //-27.6279296875
0010011100101101   //9.7939453125
1101100000101011   //-9.9580078125
1111100000101110   //-1.955078125
1011111101000111   //-16.1806640625
1111111001010010   //-0.419921875
0000010000001011   //1.0107421875
0000010000010100   //1.01953125
0011001110000000   //12.875
0000100101010010   //2.330078125
1101110111001100   //-8.55078125
0000100011100111   //2.2255859375
0000001101111110   //0.873046875
0001001011011000   //4.7109375
0011001010100110   //12.662109375
0001101111110010   //6.986328125
0001010011100110   //5.224609375
0000000111111111   //0.4990234375
0000001010000100   //0.62890625
1110000011101111   //-7.7666015625
0000000000110010   //0.048828125
0001011000110100   //5.55078125
1111101011000010   //-1.310546875
0001001111011110   //4.966796875
0000010001001110   //1.076171875
0000110100110010   //3.298828125
1111101111111101   //-1.0029296875
1100000111100000   //-15.53125
1101111111000011   //-8.0595703125
0101000011001010   //20.197265625
1111101011110100   //-1.26171875
1100011011011001   //-14.2880859375
0010100111001110   //10.451171875
1111111100001100   //-0.23828125
1111110100011111   //-0.7197265625
1111110110000001   //-0.6240234375
1111110100100010   //-0.716796875
0000011001010011   //1.5810546875
0000100111100001   //2.4697265625
1111101110101110   //-1.080078125
0000100000111000   //2.0546875
1110101111100100   //-5.02734375
1110001000011000   //-7.4765625
0000111110100011   //3.9091796875
0000011100111100   //1.80859375
1110110011111011   //-4.7548828125
0011001010000111   //12.6318359375
1111011111000001   //-2.0615234375
0101100100111100   //22.30859375
1111110100011011   //-0.7236328125
1111101001000100   //-1.43359375
1111111010000000   //-0.375
1000100111011101   //-29.5341796875
1111110111000011   //-0.5595703125
1110010011010001   //-6.7958984375
0100010010011110   //17.154296875
1111001101110111   //-3.1337890625
0000010011110100   //1.23828125
1011111010101110   //-16.330078125
0101001111010110   //20.958984375
0001000111101110   //4.482421875
0000001000010000   //0.515625
0001011011111010   //5.744140625
0001111100000010   //7.751953125
0000010010100101   //1.1611328125
1111110100001111   //-0.7353515625
0000100110100101   //2.4111328125
0000011011110001   //1.7353515625
1111101010000100   //-1.37109375
0000101000100110   //2.537109375
0000100111011000   //2.4609375
1111111011100010   //-0.279296875
0000001000100101   //0.5361328125
1001110100000101   //-24.7451171875
0100110011100111   //19.2255859375
0001000010100100   //4.16015625
0001010110110001   //5.4228515625
1100000011111011   //-15.7548828125
1111010110010010   //-2.607421875
0000000100100000   //0.28125
1100000110010100   //-15.60546875
0000111100000000   //3.75
0010000111000110   //8.443359375
0001000000000001   //4.0009765625
1011001011000111   //-19.3056640625
0000001111000111   //0.9443359375
0000001100010001   //0.7666015625
1111010111010110   //-2.541015625
1111110101010000   //-0.671875
0101001101010111   //20.8349609375
0000010001110010   //1.111328125
0000011100010101   //1.7705078125
1000011111110010   //-30.013671875
0010010101111000   //9.3671875
1110001101110001   //-7.1396484375
1111100011010001   //-1.7958984375
1111110010010111   //-0.8525390625
0101001001110101   //20.6142578125
0000010011100111   //1.2255859375
1111000101010101   //-3.6669921875
0100011111010101   //17.9580078125
1111110010101000   //-0.8359375
0001000101100000   //4.34375
1011110100010101   //-16.7294921875
1111110000110001   //-0.9521484375
0000101010110010   //2.673828125
0000110001001110   //3.076171875
0011011011111011   //13.7451171875
0000001010111101   //0.6845703125
1111101011011011   //-1.2861328125
0011101110010011   //14.8935546875
0011101011101111   //14.7333984375
1010111110110001   //-20.0771484375
1111101011100011   //-1.2783203125
0100101101100100   //18.84765625
0000000000110001   //0.0478515625
0001100111110111   //6.4912109375
1110111001101101   //-4.3935546875
1111111011101010   //-0.271484375
0000000110000111   //0.3818359375
1111111011010001   //-0.2958984375
1111111000011111   //-0.4697265625
1110001010110110   //-7.322265625
1111101011111000   //-1.2578125
0100000100000110   //16.255859375
1111110001100111   //-0.8994140625
1111111011100100   //-0.27734375
1111110111101111   //-0.5166015625
1010100011001011   //-21.8017578125
0000011110101010   //1.916015625
1110010001110111   //-6.8837890625
0000100000111111   //2.0615234375
0000011010000010   //1.626953125
1111111100111000   //-0.1953125
0011110101010010   //15.330078125
1110010000011000   //-6.9765625
1100000000101011   //-15.9580078125
1111110000100010   //-0.966796875
0000100011110111   //2.2412109375
0100101011111010   //18.744140625
0010101101100010   //10.845703125
0000001100110010   //0.798828125
0000110110010110   //3.396484375
0000111100000110   //3.755859375
0000100100010110   //2.271484375
0000110001001010   //3.072265625
1110111011100100   //-4.27734375
1111100110101011   //-1.5830078125
1111000100111100   //-3.69140625
1111110010100100   //-0.83984375
1111111110011001   //-0.1005859375
0000000011010111   //0.2099609375
1110010110111111   //-6.5634765625
1111001100011011   //-3.2236328125
1111111101100111   //-0.1494140625
1111101011010100   //-1.29296875
0010101000001010   //10.509765625
1111110110110000   //-0.578125
0000010001101100   //1.10546875
1110001011100001   //-7.2802734375
0000100001011000   //2.0859375
0001011011011001   //5.7119140625
0010001101011101   //8.8408203125
1111100101010110   //-1.666015625
1111101001000011   //-1.4345703125
1001110110011101   //-24.5966796875
0000010111000111   //1.4443359375
0000011100111001   //1.8056640625
0000010110011010   //1.400390625
1111100111000001   //-1.5615234375
0101001110101010   //20.916015625
0000101101110110   //2.865234375
0000001000110000   //0.546875
1110111110010101   //-4.1044921875
0000001001111000   //0.6171875
0001111010000111   //7.6318359375
0001110010100111   //7.1630859375
1111011011101101   //-2.2685546875
0100011001101111   //17.6083984375
0001000010101001   //4.1650390625
1100110101001000   //-12.6796875
0000010001001110   //1.076171875
0000100011100011   //2.2216796875
0000011000101110   //1.544921875
0101100101101111   //22.3583984375
0010011010101011   //9.6669921875
0000011101010101   //1.8330078125
1011010010110100   //-18.82421875
0000101101001100   //2.82421875
1000011000100001   //-30.4677734375
0000101000101010   //2.541015625
0010101100111100   //10.80859375
1111011011000101   //-2.3076171875
0000000011010011   //0.2060546875
1111100010100001   //-1.8427734375
1111011111101101   //-2.0185546875
1011101010100000   //-17.34375
1010000100010101   //-23.7294921875
1110011101111011   //-6.1298828125
0000001101100101   //0.8486328125
1001011110100011   //-26.0908203125
1100010000010100   //-14.98046875
1111011101101010   //-2.146484375
1100110111011001   //-12.5380859375
1111111110001101   //-0.1123046875
1101111111011001   //-8.0380859375
0111000011110001   //28.2353515625
1100010011010100   //-14.79296875
0111001001100001   //28.5947265625
0000000111111111   //0.4990234375
1110101000101010   //-5.458984375
1110101100101000   //-5.2109375
1111101011101000   //-1.2734375
0000000110001101   //0.3876953125
1010101011100110   //-21.275390625
1111110100010100   //-0.73046875
0000010100110000   //1.296875
1111011001011101   //-2.4091796875
0000011000111011   //1.5576171875
0010010000011000   //9.0234375
0000001001100010   //0.595703125
1111010001111011   //-2.8798828125
0000001100010010   //0.767578125
1001011001001000   //-26.4296875
0000000100110000   //0.296875
0000011101011000   //1.8359375
0101011000111010   //21.556640625
0000110000100101   //3.0361328125
1111011111000111   //-2.0556640625
0101111011110011   //23.7373046875
0000011010110101   //1.6767578125
1011011110110011   //-18.0751953125
1111100101101010   //-1.646484375
0000101100001110   //2.763671875
0100010111011011   //17.4638671875
0000000000111001   //0.0556640625
1101110010001101   //-8.8623046875
1110001110001010   //-7.115234375
0000000010010110   //0.146484375
0100010110010011   //17.3935546875
0000100111111100   //2.49609375
1001111000101011   //-24.4580078125
0000000111000110   //0.443359375
0000000101000011   //0.3154296875
1111010000011000   //-2.9765625
1111110110100000   //-0.59375
1110111011010101   //-4.2919921875
0000010100111110   //1.310546875
0000111111001011   //3.9482421875
1111110000101111   //-0.9541015625
1110111010111001   //-4.3193359375
0001010110011000   //5.3984375
0000001010001111   //0.6396484375
0000011011001110   //1.701171875
1111110110000011   //-0.6220703125
0001011000010000   //5.515625
1011010100100111   //-18.7119140625
0000111111000101   //3.9423828125
0000010101100100   //1.34765625
1111000010001001   //-3.8662109375
0000100100110101   //2.3017578125
1110011001000010   //-6.435546875
1101001001000000   //-11.4375
1111100101001001   //-1.6787109375
1100011011001000   //-14.3046875
0000100001111011   //2.1201171875
1001010011100101   //-26.7763671875
0000011001101010   //1.603515625
1111011010101000   //-2.3359375
1111110000001000   //-0.9921875
1110001000110000   //-7.453125
1111111011011100   //-0.28515625
0001010110000000   //5.375
0011101010001001   //14.6337890625
0010110100001010   //11.259765625
1110101110001111   //-5.1103515625
0011110100100011   //15.2841796875
1100011110000000   //-14.125
0000100001000010   //2.064453125
0000001000101010   //0.541015625
1101011010000011   //-10.3720703125
0001100000100100   //6.03515625
0011010110110010   //13.423828125
1110011100010111   //-6.2275390625
1001101100000011   //-25.2470703125
1101001111000101   //-11.0576171875
0000001100110010   //0.798828125
1111111110001101   //-0.1123046875
1111000110011111   //-3.5947265625
0000100110011001   //2.3994140625
0001100101101101   //6.3564453125
1100111010100100   //-12.33984375
0000000010001111   //0.1396484375
1111111110010011   //-0.1064453125
0000101100010100   //2.76953125
1111010000010101   //-2.9794921875
1111001111001000   //-3.0546875
0000010000010101   //1.0205078125
0000001110110010   //0.923828125
1111110111011110   //-0.533203125
1111101111011010   //-1.037109375
0000010000100010   //1.033203125
1101010111010111   //-10.5400390625
0001011110010001   //5.8916015625
0000010111100111   //1.4755859375
0001000101101110   //4.357421875
1010001001001100   //-23.42578125
1111001101000001   //-3.1865234375
0000011101110011   //1.8623046875
1100111010110011   //-12.3251953125
1000111101010101   //-28.1669921875
0001001110111011   //4.9326171875
1111100011111011   //-1.7548828125
0000000100100011   //0.2841796875
1111111111111011   //-0.0048828125
1111000110110110   //-3.572265625
0110001011000111   //24.6943359375
1111100101000010   //-1.685546875
1001011001111111   //-26.3759765625
0000000110010011   //0.3935546875
1001101010000011   //-25.3720703125
0000100100110010   //2.298828125
0000010001001111   //1.0771484375
0000111111010110   //3.958984375
0000011001100110   //1.599609375
1110100010010101   //-5.8544921875
1111011100010001   //-2.2333984375
0010110100110110   //11.302734375
0001101000011100   //6.52734375
0011001010110111   //12.6787109375
0010110010101101   //11.1689453125
0001111111010000   //7.953125
1111100001101001   //-1.8974609375
0000101111101101   //2.9814453125
1101111010100100   //-8.33984375
1111100111011001   //-1.5380859375
0000010110111001   //1.4306640625
0001111010011100   //7.65234375
0000010111101110   //1.482421875
0110101111100010   //26.970703125
1110001001001101   //-7.4248046875
1111111010010010   //-0.357421875
1110100101011001   //-5.6630859375
0001101100011010   //6.775390625
1100110110000010   //-12.623046875
1111110111111001   //-0.5068359375
0000110101011011   //3.3388671875
1101111111101001   //-8.0224609375
1010111100011100   //-20.22265625
0000000110101001   //0.4150390625
0000111111010001   //3.9541015625
0000001111001110   //0.951171875
1110011100111001   //-6.1943359375
1000100111111111   //-29.5009765625
0000110111100110   //3.474609375
1111101001011011   //-1.4111328125
1000001100011101   //-31.2216796875
1100110101001110   //-12.673828125
1010110001010101   //-20.9169921875
1111100010110001   //-1.8271484375
0001110110000011   //7.3779296875
0010101010100111   //10.6630859375
1011100011001010   //-17.802734375
1110010001101001   //-6.8974609375
1110111100100000   //-4.21875
1111110000111101   //-0.9404296875
1111100001111000   //-1.8828125
0000001101100011   //0.8466796875
1111101000011010   //-1.474609375
1101110110111011   //-8.5673828125
0001110001011000   //7.0859375
0000000010110001   //0.1728515625
1111101111111000   //-1.0078125
1101011000101110   //-10.455078125
0000001010110100   //0.67578125
0000011101000110   //1.818359375
0000010011001011   //1.1982421875
1101110111011101   //-8.5341796875
1111110111011010   //-0.537109375
1101011010011000   //-10.3515625
1111011101010101   //-2.1669921875
1111101011100011   //-1.2783203125
1111100010000011   //-1.8720703125
1011110010001100   //-16.86328125
0000000100111011   //0.3076171875
0010000010010110   //8.146484375
1111110000101101   //-0.9560546875
0000010010100000   //1.15625
0000001001100111   //0.6005859375
1111101010110011   //-1.3251953125
0100000001000100   //16.06640625
0010110101100000   //11.34375
0001011111110010   //5.986328125
0001010000000110   //5.005859375
1110100100001111   //-5.7353515625
0000000111010110   //0.458984375
0000000110111001   //0.4306640625
0000000111001001   //0.4462890625
1111101110010111   //-1.1025390625
0000001110110101   //0.9267578125
0000000011110101   //0.2392578125
1110011011011001   //-6.2880859375
0101100101001001   //22.3212890625
1111101111100100   //-1.02734375
1111110110001001   //-0.6162109375
0100000010000010   //16.126953125
0010001011000110   //8.693359375
1111011001110100   //-2.38671875
0000000100000001   //0.2509765625
0000001110010111   //0.8974609375
0100100001000010   //18.064453125
0000001010110011   //0.6748046875
0000011010100111   //1.6630859375
1100011101001000   //-14.1796875
1111010110101100   //-2.58203125
1111100000111111   //-1.9384765625
0000010000001010   //1.009765625
1110011111001111   //-6.0478515625
0011111011100001   //15.7197265625
1001101100111100   //-25.19140625
1111010101110101   //-2.6357421875
1101010000100011   //-10.9658203125
1111110111010110   //-0.541015625
0100111101110111   //19.8662109375
0000000010001101   //0.1376953125
1101001001100000   //-11.40625
0000001111000100   //0.94140625
0011100001111011   //14.1201171875
0000011101010111   //1.8349609375
0000110110111010   //3.431640625
0000111011000101   //3.6923828125
0000001100000010   //0.751953125
0000100010101011   //2.1669921875
1011001000011111   //-19.4697265625
0000011101000010   //1.814453125
0000000000100101   //0.0361328125
1110111010101011   //-4.3330078125
1111100010110111   //-1.8212890625
1011100111001000   //-17.5546875
0001000000100010   //4.033203125
1101100000111100   //-9.94140625
0000010111000010   //1.439453125
1111111111111101   //-0.0029296875
0000100000001001   //2.0087890625
1111001101000010   //-3.185546875
1110001011000010   //-7.310546875
1111011010100000   //-2.34375
0000100000001001   //2.0087890625
1101100010101110   //-9.830078125
0000000010011101   //0.1533203125
0000000011101010   //0.228515625
0000111001110011   //3.6123046875
0001111101100011   //7.8466796875
0001000011000111   //4.1943359375
1111110001000011   //-0.9345703125
1111011011111010   //-2.255859375
1111100001001111   //-1.9228515625
1111110111100101   //-0.5263671875
1000110100111111   //-28.6884765625
0001011001110100   //5.61328125
1110010100111111   //-6.6884765625
1111111010101001   //-0.3349609375
0001110011100001   //7.2197265625
0000011000110011   //1.5498046875
1111110100010100   //-0.73046875
1111110111111000   //-0.5078125
0000001111000111   //0.9443359375
0001101011001011   //6.6982421875
1100011010111100   //-14.31640625
0000001001100010   //0.595703125
0000110000110000   //3.046875
0100001111001000   //16.9453125
0010000101111101   //8.3720703125
0001101001010011   //6.5810546875
1110100100110110   //-5.697265625
0100001101000001   //16.8134765625
0000101000010110   //2.521484375
1111010101011111   //-2.6572265625
0110101011000011   //26.6904296875
1111000010010000   //-3.859375
0000010010010100   //1.14453125
1111100100101101   //-1.7060546875
0001010100100101   //5.2861328125
0010111100110101   //11.8017578125
1000011000111100   //-30.44140625
1111010111011000   //-2.5390625
1111111111000100   //-0.05859375
1010110000010000   //-20.984375
1111100010101110   //-1.830078125
1110101010011110   //-5.345703125
1111110110100000   //-0.59375
1111000001011010   //-3.912109375
1011011110101111   //-18.0791015625
0000001010111110   //0.685546875
1010110100101001   //-20.7099609375
0000011101110010   //1.861328125
1111100001100001   //-1.9052734375
0000000000011101   //0.0283203125
0100011001001101   //17.5751953125
0000001110111110   //0.935546875
0010101001101001   //10.6025390625
1111110101111011   //-0.6298828125
0011100100100011   //14.2841796875
1111111111010101   //-0.0419921875
1110001001110110   //-7.384765625
1101011101011000   //-10.1640625
0000001000011110   //0.529296875
1001001111101001   //-27.0224609375
1001101011011111   //-25.2822265625
0010010010001011   //9.1357421875
1111111000000010   //-0.498046875
0101101001010000   //22.578125
0000001011001011   //0.6982421875
0000000010110001   //0.1728515625
0011010001010101   //13.0830078125
1000001101011011   //-31.1611328125
1111101001101000   //-1.3984375
0100100111010111   //18.4599609375
0110010111010010   //25.455078125
1111101001100111   //-1.3994140625
0000000001001110   //0.076171875
0000010010100101   //1.1611328125
1111010000101000   //-2.9609375
0000001101100110   //0.849609375
1111101001001100   //-1.42578125
1111010110001101   //-2.6123046875
0000100101001010   //2.322265625
1111110100001100   //-0.73828125
0000000111101111   //0.4833984375
0011000110001010   //12.384765625
0000010000110001   //1.0478515625
1111011100101010   //-2.208984375
0000001101110111   //0.8662109375
1111110011111001   //-0.7568359375
1010100001111100   //-21.87890625
1011111100100010   //-16.216796875
0000001010101100   //0.66796875
0000000001011000   //0.0859375
0101111001101111   //23.6083984375
1111011111011000   //-2.0390625
0000001111011000   //0.9609375
1100100011111111   //-13.7509765625
0000010100011000   //1.2734375
1111011010010001   //-2.3583984375
0101000110110011   //20.4248046875
0000011111100100   //1.97265625
0001101101110011   //6.8623046875
0101001010011100   //20.65234375
1111111111111111   //-0.0009765625
1000011100100100   //-30.21484375
1111000001011001   //-3.9130859375
1001111111001100   //-24.05078125
1111110010011000   //-0.8515625
0101011010110111   //21.6787109375
1111001101001001   //-3.1787109375
0000100011110000   //2.234375
0000100001010010   //2.080078125
1111111011111000   //-0.2578125
1010101111011101   //-21.0341796875
0000001001110000   //0.609375
1111111101110001   //-0.1396484375
1111110110001100   //-0.61328125
0010000011000000   //8.1875
0000010011010010   //1.205078125
1011010001100101   //-18.9013671875
1001110101000000   //-24.6875
0000000010110110   //0.177734375
0100100010000101   //18.1298828125
1111011110100010   //-2.091796875
0000100111110101   //2.4892578125
0000100000100001   //2.0322265625
1111110110010111   //-0.6025390625
0000111101110000   //3.859375
1111111100000001   //-0.2490234375
0000000111110101   //0.4892578125
1111111000111100   //-0.44140625
0000001100101111   //0.7958984375
0000101111100101   //2.9736328125
0000010101000000   //1.3125
1111001010111010   //-3.318359375
0001011110111011   //5.9326171875
1111101011101011   //-1.2705078125
1111010001001100   //-2.92578125
1110011001101111   //-6.3916015625
1111110001110010   //-0.888671875
0001101001100100   //6.59765625
0001001010010100   //4.64453125
0001000100101101   //4.2939453125
0111010100111011   //29.3076171875
1001100001001100   //-25.92578125
0010000010100011   //8.1591796875
1000000011100110   //-31.775390625
1111101101100001   //-1.1552734375
1101110111100111   //-8.5244140625
1111110001011111   //-0.9072265625
0101000011100000   //20.21875
0100101000111010   //18.556640625
0000011011011100   //1.71484375
0001101110010000   //6.890625
1111011110000100   //-2.12109375
1111101011110000   //-1.265625
0000110011100000   //3.21875
1111000000111101   //-3.9404296875
0111111011101101   //31.7314453125
0000101101011111   //2.8427734375
1111110011010101   //-0.7919921875
0000011101011110   //1.841796875
1111101111011011   //-1.0361328125
1110111001011000   //-4.4140625
0011110001000011   //15.0654296875
0000001100110110   //0.802734375
0001010110011101   //5.4033203125
1111101111000000   //-1.0625
1111110100010110   //-0.728515625
1111001000111100   //-3.44140625
0000001001010100   //0.58203125
0010000101010000   //8.328125
1111101011011100   //-1.28515625
0001110010010110   //7.146484375
1101000010111100   //-11.81640625
0001000110011100   //4.40234375
1111011010001000   //-2.3671875
0000111000000110   //3.505859375
1110100110011101   //-5.5966796875
1010101101011110   //-21.158203125
1110011111101110   //-6.017578125
0100101101101010   //18.853515625
0001011010000111   //5.6318359375
0001010000100001   //5.0322265625
1111101000011000   //-1.4765625
0000000001001101   //0.0751953125
0000010001101100   //1.10546875
1011110100110100   //-16.69921875
0000010010101100   //1.16796875
0000101011010100   //2.70703125
1010010000000101   //-22.9951171875
0000011011000010   //1.689453125
0010111100101111   //11.7958984375
1101010011000111   //-10.8056640625
1011110111100111   //-16.5244140625
0100110110101100   //19.41796875
0001000101111100   //4.37109375
0000100010011011   //2.1513671875
1111010111011100   //-2.53515625
0110000001001010   //24.072265625
1111011010010110   //-2.353515625
1111101110100100   //-1.08984375
1110101011111000   //-5.2578125
0000000110010110   //0.396484375
0000010001001101   //1.0751953125
1101010000010000   //-10.984375
0010110001100100   //11.09765625
0000001010110001   //0.6728515625
0011100110110111   //14.4287109375
1101011100111001   //-10.1943359375
1111110111111100   //-0.50390625
1111100100000000   //-1.75
1100101111101101   //-13.0185546875
1111111100101110   //-0.205078125
0000101010001110   //2.638671875
1111110000011000   //-0.9765625
0000001110011001   //0.8994140625
1111111011010100   //-0.29296875
0000010011111010   //1.244140625
1101010001111001   //-10.8818359375
1001011000111110   //-26.439453125
0000010001101101   //1.1064453125
1001001011101110   //-27.267578125
0001011000011110   //5.529296875
1111100110100111   //-1.5869140625
1111111010011001   //-0.3505859375
0111010000011010   //29.025390625
1011110101111010   //-16.630859375
1111111000011000   //-0.4765625
0000110011111110   //3.248046875
0100111101010000   //19.828125
0001001101101000   //4.8515625
0000011101101010   //1.853515625
0001101111111111   //6.9990234375
1111011100010011   //-2.2314453125
0101011100110100   //21.80078125
1111100101000100   //-1.68359375
1111011110100001   //-2.0927734375
0000101110111111   //2.9365234375
0000111101011111   //3.8427734375
1111110001110010   //-0.888671875
0001000010111010   //4.181640625
1111001000100100   //-3.46484375
1011100000000000   //-18.0
0000101001000110   //2.568359375
0001100001100111   //6.1005859375
0111000111011100   //28.46484375
1110111001011110   //-4.408203125
1111000101001011   //-3.6767578125
0000001100000111   //0.7568359375
0001110111111000   //7.4921875
1111100100000101   //-1.7451171875
0000000010101011   //0.1669921875
1100011110101100   //-14.08203125
1100000101100000   //-15.65625
1100101001111111   //-13.3759765625
0001011000001111   //5.5146484375
0000100111110000   //2.484375
1000111010011111   //-28.3447265625
0001011001101110   //5.607421875
1111111100001000   //-0.2421875
0101101010000100   //22.62890625
1110010101100111   //-6.6494140625
1001000110001001   //-27.6162109375
0011000000000011   //12.0029296875
0000110001111010   //3.119140625
0000100000100100   //2.03515625
1010001001011010   //-23.412109375
1110110011111001   //-4.7568359375
0000000010111100   //0.18359375
1100101111111111   //-13.0009765625
1011101000100011   //-17.4658203125
0001100111111100   //6.49609375
1100111001111101   //-12.3779296875
1001010010000101   //-26.8701171875
1011010100110110   //-18.697265625
0001001001111010   //4.619140625
0000000101100001   //0.3447265625
0011001101100001   //12.8447265625
0001011001111110   //5.623046875
0100100000111100   //18.05859375
0001011000011101   //5.5283203125
0101100100100100   //22.28515625
1111111001111011   //-0.3798828125
0100111110011101   //19.9033203125
1111100101000111   //-1.6806640625
0010011100101111   //9.7958984375
1111100100010010   //-1.732421875
0001000011101100   //4.23046875
1101100010001110   //-9.861328125
1111111100001010   //-0.240234375
1111101101111011   //-1.1298828125
0001001101110111   //4.8662109375
0001011101101111   //5.8583984375
0000110000000010   //3.001953125
0011100010110111   //14.1787109375
0000100101100100   //2.34765625
0000000111110000   //0.484375
0001100101001111   //6.3271484375
1111110001001101   //-0.9248046875
0100010001110011   //17.1123046875
1111101101110100   //-1.13671875
1110010101110101   //-6.6357421875
0001010111000000   //5.4375
1110110101110101   //-4.6357421875
0000100000101000   //2.0390625
0100100101000011   //18.3154296875
0000001100101101   //0.7939453125
1111100000011010   //-1.974609375
0010000110111011   //8.4326171875
1111101101101000   //-1.1484375
0000001010010011   //0.6435546875
0000101011101110   //2.732421875
1111110010100110   //-0.837890625
0100111001110010   //19.611328125
1111010001111000   //-2.8828125
1110010100111000   //-6.6953125
0100001100111100   //16.80859375
1111101110101101   //-1.0810546875
1111111000000111   //-0.4931640625
1111100100000111   //-1.7431640625
0100100001000100   //18.06640625
0000100000010001   //2.0166015625
0000110110000001   //3.3759765625
0000100111101110   //2.482421875
1111100111001100   //-1.55078125
0000011101101000   //1.8515625
1111000010011100   //-3.84765625
1111010100010001   //-2.7333984375
1111111111110011   //-0.0126953125
0011100010010111   //14.1474609375
0000011101111000   //1.8671875
1100110001011000   //-12.9140625
1110000011001010   //-7.802734375
0000000001001000   //0.0703125
0100000000011100   //16.02734375
1111000000111111   //-3.9384765625
1111000000111000   //-3.9453125
0000010000110000   //1.046875
0001110011001111   //7.2021484375
1111111111111010   //-0.005859375
1111001010101001   //-3.3349609375
1100101101010100   //-13.16796875
0000100110000011   //2.3779296875
0101011100110101   //21.8017578125
0010011101100110   //9.849609375
0001010001000011   //5.0654296875
0000001101001011   //0.8232421875
1011111110011011   //-16.0986328125
1000000001000101   //-31.9326171875
1110111000010110   //-4.478515625
0001111101011000   //7.8359375
0001011100011011   //5.7763671875
0000011111110000   //1.984375
0000000011011101   //0.2158203125
0000011000001101   //1.5126953125
0010100111101111   //10.4833984375
1101100000101111   //-9.9541015625
1111110100010101   //-0.7294921875
0001100100010011   //6.2685546875
0000110011111110   //3.248046875
1111110100000000   //-0.75
0000001010100000   //0.65625
1111101000111100   //-1.44140625
1110111111111100   //-4.00390625
1111110010100110   //-0.837890625
0111100111000101   //30.4423828125
1111101111011011   //-1.0361328125
1110100101011110   //-5.658203125
1111111011000111   //-0.3056640625
0000010001101101   //1.1064453125
0001110000010111   //7.0224609375
0101010011010001   //21.2041015625
1001111100010111   //-24.2275390625
0001011000000010   //5.501953125
1111000000101000   //-3.9609375
0000000001111001   //0.1181640625
1110110001010111   //-4.9150390625
0111000001010000   //28.078125
0000101111110110   //2.990234375
1010011010101110   //-22.330078125
0001000100011100   //4.27734375
0001000110110000   //4.421875
0000011000111001   //1.5556640625
0111001001001010   //28.572265625
1110110010111001   //-4.8193359375
0000111011100110   //3.724609375
0000110111111010   //3.494140625
1111101001111000   //-1.3828125
0000010101001000   //1.3203125
1111101101101010   //-1.146484375
0000001101100100   //0.84765625
1111110011000100   //-0.80859375
1111111111010100   //-0.04296875
1111111101011001   //-0.1630859375
0001000110011001   //4.3994140625
0100100001001111   //18.0771484375
1110111010010011   //-4.3564453125
0101101001110101   //22.6142578125
1111101100010110   //-1.228515625
1010001111010010   //-23.044921875
1111001010110110   //-3.322265625
1101101110100110   //-9.087890625
1111111101010101   //-0.1669921875
0000011000011001   //1.5244140625
0111011011101011   //29.7294921875
0000110101010001   //3.3291015625
0000010101000001   //1.3134765625
0000111000011100   //3.52734375
0000000011101110   //0.232421875
1111101110101001   //-1.0849609375
0101100110110010   //22.423828125
1111111110010101   //-0.1044921875
1111111000101111   //-0.4541015625
0000100011010001   //2.2041015625
1111101010110110   //-1.322265625
1011000101011110   //-19.658203125
1111111001111010   //-0.380859375
0000010011010011   //1.2060546875
1111011010010111   //-2.3525390625
0000010011110001   //1.2353515625
0000001101011111   //0.8427734375
0010010100000110   //9.255859375
0011000111001011   //12.4482421875
1111001111110110   //-3.009765625
0000000000110100   //0.05078125
1111111111110010   //-0.013671875
0100110101100110   //19.349609375
1111100111110110   //-1.509765625
1111110010100110   //-0.837890625
0110000110000101   //24.3798828125
1101010111100100   //-10.52734375
0000010111110011   //1.4873046875
1111001101110100   //-3.13671875
0000001111100110   //0.974609375
0000110011001010   //3.197265625
1100110100101000   //-12.7109375
1010001011100010   //-23.279296875
1111110011010010   //-0.794921875
0000010010101000   //1.1640625
0000100000100111   //2.0380859375
1111101111100101   //-1.0263671875
1001111010110000   //-24.328125
1111111100010111   //-0.2275390625
0000010100001011   //1.2607421875
0000010101001100   //1.32421875
1111101100001100   //-1.23828125
1111111111100101   //-0.0263671875
0001000001100101   //4.0986328125
0010010101101001   //9.3525390625
1110000100111100   //-7.69140625
1111101111001001   //-1.0537109375
0010111111101000   //11.9765625
0000100000010010   //2.017578125
0000010101000111   //1.3193359375
0000001000011100   //0.52734375
1111111111000111   //-0.0556640625
1111101011000110   //-1.306640625
0001111111111010   //7.994140625
1111010100011010   //-2.724609375
1111110011110011   //-0.7626953125
0000000111101001   //0.4775390625
0000000110110011   //0.4248046875
0000001111010100   //0.95703125
1111101001101101   //-1.3935546875
0001100111110111   //6.4912109375
0110000100011111   //24.2802734375
1110010100110000   //-6.703125
1000011111010010   //-30.044921875
1111100010111010   //-1.818359375
1111010000111001   //-2.9443359375
1110100011010110   //-5.791015625
1001010101000110   //-26.681640625
0000101010010101   //2.6455078125
0000000101101010   //0.353515625
1110011010010111   //-6.3525390625
1110011100110110   //-6.197265625
1111111000111000   //-0.4453125
1110111010100111   //-4.3369140625
1101100011101100   //-9.76953125
1110001011000001   //-7.3115234375
0000001010100001   //0.6572265625
0000101110110100   //2.92578125
0000000101111001   //0.3681640625
0000100000010110   //2.021484375
0000001101101010   //0.853515625
0010111111110111   //11.9912109375
1110010001101110   //-6.892578125
1111111001000110   //-0.431640625
0011000110000010   //12.376953125
0000000110100111   //0.4130859375
1111001101011010   //-3.162109375
1100110101101001   //-12.6474609375
0001001010000000   //4.625
0101111010011110   //23.654296875
0001110011101110   //7.232421875
0000101001100001   //2.5947265625
1110010111111010   //-6.505859375
0001110001001101   //7.0751953125
1111101100000001   //-1.2490234375
0001000000010111   //4.0224609375
0110010110010000   //25.390625
1101100000001001   //-9.9912109375
0000000111010011   //0.4560546875
0000011010010001   //1.6416015625
1111100110100000   //-1.59375
0000010011000111   //1.1943359375
1111011011011011   //-2.2861328125
0111111111100000   //31.96875
0001110101100111   //7.3505859375
0011010001110010   //13.111328125
1010100010011100   //-21.84765625
0000001101101101   //0.8564453125
1100111110010101   //-12.1044921875
1110110100111001   //-4.6943359375
0001111110000011   //7.8779296875
1111011011110010   //-2.263671875
1001111101100100   //-24.15234375
0001111010011010   //7.650390625
0000001011110100   //0.73828125
0000000010110110   //0.177734375
1111111110000111   //-0.1181640625
1111100011010110   //-1.791015625
0000010001110010   //1.111328125
0001110011001000   //7.1953125
1101110000100000   //-8.96875
1111010111111101   //-2.5029296875
1110111010011000   //-4.3515625
1101101111001001   //-9.0537109375
0100001100001001   //16.7587890625
1110100010101100   //-5.83203125
1110100000001100   //-5.98828125
0000000001011101   //0.0908203125
0101011000101011   //21.5419921875
1111010110111000   //-2.5703125
0000110111100110   //3.474609375
0000100011111000   //2.2421875
1111101111000101   //-1.0576171875
1110011111000011   //-6.0595703125
0001000001100101   //4.0986328125
1101111000000101   //-8.4951171875
1101001101100110   //-11.150390625
0001101001110000   //6.609375
1101010000101001   //-10.9599609375
0000101000100111   //2.5380859375
1111010110101001   //-2.5849609375
1011011011110001   //-18.2646484375
1111110011100001   //-0.7802734375
1110111010100111   //-4.3369140625
0010001110110011   //8.9248046875
0001101001110101   //6.6142578125
0000001001000011   //0.5654296875
0000001101000111   //0.8193359375
0011111111000000   //15.9375
1111111101100101   //-0.1513671875
0000000100011000   //0.2734375
1111111001110000   //-0.390625
1111100010110101   //-1.8232421875
1010010100000011   //-22.7470703125
0100100110001110   //18.388671875
1110101001101000   //-5.3984375
0110101011010111   //26.7099609375
0000010101100011   //1.3466796875
0001101000001010   //6.509765625
1101110000000111   //-8.9931640625
1111110010101000   //-0.8359375
1111101110111111   //-1.0634765625
1111101011110001   //-1.2646484375
0010010100101010   //9.291015625
0000100011010001   //2.2041015625
1111101010110011   //-1.3251953125
1111000010001111   //-3.8603515625
0000100011010101   //2.2080078125
0000010100010101   //1.2705078125
0001001010000011   //4.6279296875
0000001100101111   //0.7958984375
0001000110010000   //4.390625
1110001111100101   //-7.0263671875
0000001000111001   //0.5556640625
1100010001111001   //-14.8818359375
0000010001001111   //1.0771484375
0000000100011110   //0.279296875
1111110110110000   //-0.578125
0001100111001111   //6.4521484375
1111000011110011   //-3.7626953125
1101110111101000   //-8.5234375
1111101111111010   //-1.005859375
0001111011000001   //7.6884765625
1110111100001010   //-4.240234375
0010001011110111   //8.7412109375
0000000000001001   //0.0087890625
1111110001010010   //-0.919921875
1111010011001101   //-2.7998046875
1110011011110000   //-6.265625
0010011101000010   //9.814453125
0000111100111110   //3.810546875
1111100010001110   //-1.861328125
1010001100001011   //-23.2392578125
1100001110011100   //-15.09765625
1110001011011110   //-7.283203125
0000010101010101   //1.3330078125
0000000000010011   //0.0185546875
0000000110110100   //0.42578125
1111110111000011   //-0.5595703125
1111001111101011   //-3.0205078125
0111001011110010   //28.736328125
0010111100000100   //11.75390625
1101000001100001   //-11.9052734375
0000111110101010   //3.916015625
1011001100110011   //-19.2001953125
1111111100110111   //-0.1962890625
0001010001011101   //5.0908203125
0000000111110000   //0.484375
1111110111101010   //-0.521484375
0011101010100000   //14.65625
0000001001111001   //0.6181640625
0000011001100101   //1.5986328125
1010100001111011   //-21.8798828125
0000010001001101   //1.0751953125
0000100110001111   //2.3896484375
1110110100110010   //-4.701171875
0000000011001100   //0.19921875
0010011011010010   //9.705078125
1111111101010010   //-0.169921875
0110000010000101   //24.1298828125
1100110111011100   //-12.53515625
0000001111000010   //0.939453125
1101000101110100   //-11.63671875
1111110010100011   //-0.8408203125
0011000001010101   //12.0830078125
1111111100011011   //-0.2236328125
0010111110111101   //11.9345703125
0001001001000000   //4.5625
0000010001000000   //1.0625
0000001110111000   //0.9296875
0000000111010100   //0.45703125
1000000111000100   //-31.55859375
1001001010001001   //-27.3662109375
1110000101111100   //-7.62890625
1100000100011000   //-15.7265625
1100101010110001   //-13.3271484375
0000001000011001   //0.5244140625
0001100101100001   //6.3447265625
1001010001111000   //-26.8828125
0000010111110110   //1.490234375
1111111010110010   //-0.326171875
1111000100101010   //-3.708984375
1011101100111111   //-17.1884765625
1011111100000010   //-16.248046875
0011001010110101   //12.6767578125
0011011000101010   //13.541015625
0000110100010011   //3.2685546875
1111110101000101   //-0.6826171875
0000001110010100   //0.89453125
0101100110011100   //22.40234375
0000010011111001   //1.2431640625
1100100110110101   //-13.5732421875
0000101110010101   //2.8955078125
0011100000000110   //14.005859375
1111011110011100   //-2.09765625
1111100111011010   //-1.537109375
1111110100111111   //-0.6884765625
0011101001110000   //14.609375
1111111011010011   //-0.2939453125
1101000010111111   //-11.8134765625
0000001111110111   //0.9912109375
0000000110111111   //0.4365234375
0001000101100011   //4.3466796875
1100111000100100   //-12.46484375
0010001011010101   //8.7080078125
0000000001100000   //0.09375
1111101010001110   //-1.361328125
1110101100001001   //-5.2412109375
1111111111010101   //-0.0419921875
0000111101001001   //3.8212890625
1110001001111101   //-7.3779296875
0000001000010111   //0.5224609375
1111001111011101   //-3.0341796875
1110111101000000   //-4.1875
0110110111010101   //27.4580078125
1011010100110101   //-18.6982421875
1111111010001010   //-0.365234375
1101000100000001   //-11.7490234375
0000000000110111   //0.0537109375
1111111100101010   //-0.208984375
0000010101000000   //1.3125
0000000101000001   //0.3134765625
1011000100100101   //-19.7138671875
1110011010010100   //-6.35546875
0000000111101111   //0.4833984375
1111110110101110   //-0.580078125
0000011101101101   //1.8564453125
1110101001111101   //-5.3779296875
0100011110110100   //17.92578125
1111100101011110   //-1.658203125
0000100110100110   //2.412109375
1111111000001101   //-0.4873046875
0001001011011100   //4.71484375
1111110111110101   //-0.5107421875
1111101110010110   //-1.103515625
0001000001000010   //4.064453125
1010011001110110   //-22.384765625
0000001011101001   //0.7275390625
1110110011100010   //-4.779296875
1111101111100011   //-1.0283203125
1111110010011010   //-0.849609375
1100101000000000   //-13.5
1111110010101001   //-0.8349609375
0010001101001100   //8.82421875
1110000011000010   //-7.810546875
1111111001010110   //-0.416015625
1111100111101010   //-1.521484375
1101100001101101   //-9.8935546875
1110001111110001   //-7.0146484375
1000101010001000   //-29.3671875
0000000000101100   //0.04296875
0000101101001000   //2.8203125
1111110111100101   //-0.5263671875
1101010001011101   //-10.9091796875
0000010000100110   //1.037109375
0000001010111101   //0.6845703125
0000001110100101   //0.9111328125
1111111100101101   //-0.2060546875
0001111010011100   //7.65234375
1011100100010010   //-17.732421875
0001000011100111   //4.2255859375
0001000011011011   //4.2138671875
0001101111101100   //6.98046875
1111110000000110   //-0.994140625
0000000111100100   //0.47265625
1110001010011011   //-7.3486328125
0110011011001010   //25.697265625
0000011001001100   //1.57421875
1111001110100011   //-3.0908203125
1111111001100011   //-0.4033203125
1110011111111001   //-6.0068359375
0000100000000100   //2.00390625
1111111111111010   //-0.005859375
1111101100110100   //-1.19921875
0000010010010100   //1.14453125
0010100010000111   //10.1318359375
0101011010001000   //21.6328125
1111111010000001   //-0.3740234375
1111000100111010   //-3.693359375
0001010110011111   //5.4052734375
0101110001011001   //23.0869140625
1111011000111010   //-2.443359375
0000001111101000   //0.9765625
1010100011011100   //-21.78515625
1111100101111111   //-1.6259765625
1111111010000011   //-0.3720703125
0001011111000100   //5.94140625
1111010011100100   //-2.77734375
0011001101001100   //12.82421875
1111001110010101   //-3.1044921875
0001000010111101   //4.1845703125
1110110101000101   //-4.6826171875
1101110001111011   //-8.8798828125
1111010111111101   //-2.5029296875
0000001001001110   //0.576171875
1111101010010111   //-1.3525390625
0000000110110010   //0.423828125
1110100110101000   //-5.5859375
1010001010001000   //-23.3671875
1100110111000101   //-12.5576171875
0110110010000101   //27.1298828125
1011110110001111   //-16.6103515625
1101010000001100   //-10.98828125
1110100110001000   //-5.6171875
0000000011000100   //0.19140625
0000001000010010   //0.517578125
1101110010011111   //-8.8447265625
1110111001100110   //-4.400390625
1001101000010010   //-25.482421875
0000000100110110   //0.302734375
1110100001111111   //-5.8759765625
1101101100111011   //-9.1923828125
1111110101111001   //-0.6318359375
1100111001100010   //-12.404296875
1100100001011011   //-13.9111328125
0010111001011001   //11.5869140625
1100010111000000   //-14.5625
0100001001000000   //16.5625
0000010001000000   //1.0625
0100001000100101   //16.5361328125
0010011000111111   //9.5615234375
0000011111100110   //1.974609375
1111110110001000   //-0.6171875
1101100100011010   //-9.724609375
1110101011101000   //-5.2734375
0001010011110100   //5.23828125
0000110101010010   //3.330078125
1111111000100110   //-0.462890625
0100011010000101   //17.6298828125
0000100001100011   //2.0966796875
1110101011101000   //-5.2734375
1110100110111111   //-5.5634765625
1111110011010011   //-0.7939453125
0000001010010000   //0.640625
0000110001111001   //3.1181640625
0000000111001010   //0.447265625
1101000111001010   //-11.552734375
1111110010110001   //-0.8271484375
0000001001010011   //0.5810546875
0000100111000110   //2.443359375
1000011111111111   //-30.0009765625
1111010000010010   //-2.982421875
1110001101111100   //-7.12890625
0000010101101000   //1.3515625
0000001010010010   //0.642578125
0001101101101110   //6.857421875
0001001110111110   //4.935546875
1001101000101001   //-25.4599609375
0000000111101101   //0.4814453125
0000011010010101   //1.6455078125
0000001110101011   //0.9169921875
1111000010100010   //-3.841796875
0101000001100111   //20.1005859375
1110101010010101   //-5.3544921875
1110110011010110   //-4.791015625
0000010001000101   //1.0673828125
1111111000000110   //-0.494140625
1110110111111100   //-4.50390625
0001011000100010   //5.533203125
1101111101111010   //-8.130859375
1000111001011110   //-28.408203125
0001000111110111   //4.4912109375
0010011101011110   //9.841796875
0100100000110110   //18.052734375
1111110100001000   //-0.7421875
1111110001101000   //-0.8984375
1111111011001010   //-0.302734375
1011010010011001   //-18.8505859375
1111111100110101   //-0.1982421875
0000010110110000   //1.421875
1110101100111001   //-5.1943359375
0000000111100010   //0.470703125
1011010111101011   //-18.5205078125
1111110010011000   //-0.8515625
0010111110101110   //11.919921875
1111111110101110   //-0.080078125
1111010100101100   //-2.70703125
0010010100000111   //9.2568359375
0000010100111011   //1.3076171875
0000011011111101   //1.7470703125
1111110011011100   //-0.78515625
1001100111110110   //-25.509765625
0000110000000011   //3.0029296875
0011110011110011   //15.2373046875
0010101110101111   //10.9208984375
1111101101010000   //-1.171875
1111111111001011   //-0.0517578125
1110000001101011   //-7.8955078125
0000110001010001   //3.0791015625
0000000000110101   //0.0517578125
0101110000010001   //23.0166015625
0010101100011110   //10.779296875
1101001110100110   //-11.087890625
1101110101101110   //-8.642578125
1111010000100010   //-2.966796875
1110100101001100   //-5.67578125
1011111010101100   //-16.33203125
1111101111001111   //-1.0478515625
0101101011000101   //22.6923828125
0000111001111111   //3.6240234375
0000010100010001   //1.2666015625
1011111101111101   //-16.1279296875
1111001000001100   //-3.48828125
0001001100001010   //4.759765625
0001101101101000   //6.8515625
1111111001111010   //-0.380859375
1110110111011000   //-4.5390625
1101010000110001   //-10.9521484375
0000011011000100   //1.69140625
1110001011101001   //-7.2724609375
1111101010111011   //-1.3173828125
0000010100101100   //1.29296875
1110110001110010   //-4.888671875
0010101010101010   //10.666015625
0000111011101001   //3.7275390625
1111001011010010   //-3.294921875
1111101110100000   //-1.09375
0000000011001001   //0.1962890625
0010100110110111   //10.4287109375
0000010011110000   //1.234375
1110110001000100   //-4.93359375
1100110100011001   //-12.7255859375
0001010110010001   //5.3916015625
0000010001001010   //1.072265625
1100111000100101   //-12.4638671875
1111101000100001   //-1.4677734375
1010001001100100   //-23.40234375
1111010011001011   //-2.8017578125
0000001000000110   //0.505859375
0000000101011110   //0.341796875
0000110100100100   //3.28515625
1111100111001001   //-1.5537109375
0010111110010011   //11.8935546875
0001100011010100   //6.20703125
0101010011100000   //21.21875
1111010101010001   //-2.6708984375
1110010110100001   //-6.5927734375
0110000110011000   //24.3984375
1110011000111000   //-6.4453125
0100101110111011   //18.9326171875
0001011001011101   //5.5908203125
1111110101100010   //-0.654296875
0000010011010100   //1.20703125
1111011000011110   //-2.470703125
1001110100001100   //-24.73828125
1111010001010010   //-2.919921875
1100010001010010   //-14.919921875
1111110011100001   //-0.7802734375
1101001000110011   //-11.4501953125
1110111101000000   //-4.1875
0000000101110111   //0.3662109375
1111101101111001   //-1.1318359375
1111110111001101   //-0.5498046875
0011011100111101   //13.8095703125
0011001011100010   //12.720703125
1110101011101111   //-5.2666015625
0001110000111011   //7.0576171875
0010011000101000   //9.5390625
1111110101010111   //-0.6650390625
0110101110110101   //26.9267578125
0000100011101100   //2.23046875
0001101001111001   //6.6181640625
0000010010111000   //1.1796875
1111010101100000   //-2.65625
0000010001010010   //1.080078125
1111010010111100   //-2.81640625
1101001010000001   //-11.3740234375
0000111011010001   //3.7041015625
1111110000100101   //-0.9638671875
1001110110010100   //-24.60546875
0001100011100111   //6.2255859375
1111100011101001   //-1.7724609375
1010010000011001   //-22.9755859375
0000010110001100   //1.38671875
1011110001101010   //-16.896484375
0010101111100000   //10.96875
1111011000110101   //-2.4482421875
0001110011100100   //7.22265625
0100001010110110   //16.677734375
0011001011001001   //12.6962890625
0000000111101100   //0.48046875
1110010110011100   //-6.59765625
1111001110110000   //-3.078125
1101010011111000   //-10.7578125
1000111001000100   //-28.43359375
1111000001100111   //-3.8994140625
0000101001000100   //2.56640625
0001010001011111   //5.0927734375
1111111100100100   //-0.21484375
0000000100001001   //0.2587890625
1110100000011101   //-5.9716796875
1110011011110111   //-6.2587890625
0010001000111011   //8.5576171875
0101001101001110   //20.826171875
0000100010110111   //2.1787109375
0000010100100011   //1.2841796875
0001001111101001   //4.9775390625
1100001111001101   //-15.0498046875
0010101011110001   //10.7353515625
1011010101110001   //-18.6396484375
1111000100111100   //-3.69140625
1111010010101011   //-2.8330078125
1111000111100010   //-3.529296875
1111111000001011   //-0.4892578125
0000101000100000   //2.53125
0001011010010101   //5.6455078125
1110000101101000   //-7.6484375
1101111101100010   //-8.154296875
1111001000111111   //-3.4384765625
1010011110000011   //-22.1220703125
0000010010001111   //1.1396484375
1111110110010010   //-0.607421875
1110111101011100   //-4.16015625
0000010100001001   //1.2587890625
1111011110101100   //-2.08203125
1111000011100001   //-3.7802734375
0100110010001111   //19.1396484375
1100000011001100   //-15.80078125
1110111100010001   //-4.2333984375
0000000000011101   //0.0283203125
0010001100010111   //8.7724609375
1111101010010100   //-1.35546875
1111111100001011   //-0.2392578125
0000001011100101   //0.7236328125
0000011010010100   //1.64453125
0100000010111100   //16.18359375
1110101111100001   //-5.0302734375
1000011111001101   //-30.0498046875
0000010010100100   //1.16015625
0000010001000110   //1.068359375
0000010100011000   //1.2734375
0000010101110010   //1.361328125
0010010010000010   //9.126953125
0000111000000100   //3.50390625
1111011001010110   //-2.416015625
1111101010100010   //-1.341796875
1111101111001100   //-1.05078125
0110011111100101   //25.9736328125
0000011001011101   //1.5908203125
0011011010001010   //13.634765625
1111010010001011   //-2.8642578125
0001000111011110   //4.466796875
1100001000100010   //-15.466796875
1011110110000101   //-16.6201171875
1111110101101010   //-0.646484375
0010110111101011   //11.4794921875
1000101001000001   //-29.4365234375
1110010011011001   //-6.7880859375
0000111000110100   //3.55078125
1111010111010110   //-2.541015625
1110101001100101   //-5.4013671875
0000011111111001   //1.9931640625
1111101101101001   //-1.1474609375
0010100011111001   //10.2431640625
1111101101001000   //-1.1796875
1111110110011011   //-0.5986328125
0100000001110010   //16.111328125
0000011111010100   //1.95703125
1101101111111010   //-9.005859375
0000011110001011   //1.8857421875
1110000010111101   //-7.8154296875
1010110110000001   //-20.6240234375
1111001010010000   //-3.359375
1111101001010101   //-1.4169921875
0000000101001110   //0.326171875
1101010100001001   //-10.7412109375
0000101100101111   //2.7958984375
1111101010100001   //-1.3427734375
1101110101010000   //-8.671875
0010010101101010   //9.353515625
0011110101010000   //15.328125
0001011000000100   //5.50390625
1111110111110110   //-0.509765625
1000011110100001   //-30.0927734375
1001001111001110   //-27.048828125
1111111100110000   //-0.203125
0000110110011101   //3.4033203125
0000000110100101   //0.4111328125
1110010110010011   //-6.6064453125
0010111111010001   //11.9541015625
0000000100100011   //0.2841796875
1100001111100111   //-15.0244140625
1110111000000101   //-4.4951171875
0001001101111000   //4.8671875
0100011001001101   //17.5751953125
0000010010100000   //1.15625
1111000110001100   //-3.61328125
1001101110100000   //-25.09375
0010010001001101   //9.0751953125
0000011001110010   //1.611328125
1111111100000010   //-0.248046875
0000010011011010   //1.212890625
0001111100000010   //7.751953125
1111011100101110   //-2.205078125
1101110001001111   //-8.9228515625
0000011001000011   //1.5654296875
1111100111000001   //-1.5615234375
0001001001110001   //4.6103515625
1111101000101001   //-1.4599609375
1010010111111001   //-22.5068359375
1111100011001001   //-1.8037109375
1110110010101110   //-4.830078125
0110111100100010   //27.783203125
1110110000011111   //-4.9697265625
1011001110110100   //-19.07421875
0000100011011011   //2.2138671875
1111001001111000   //-3.3828125
1111110010000110   //-0.869140625
0000000111000110   //0.443359375
0010001100010001   //8.7666015625
0001000000101001   //4.0400390625
0111101101011100   //30.83984375
1111111110010000   //-0.109375
1011010001101100   //-18.89453125
1111001111101000   //-3.0234375
1111001001001011   //-3.4267578125
0001001000001110   //4.513671875
0000001000101000   //0.5390625
1000111100000010   //-28.248046875
0011111111110101   //15.9892578125
1110101111011000   //-5.0390625
1110110101001101   //-4.6748046875
0011010011010010   //13.205078125
0100100110110100   //18.42578125
1111110010010100   //-0.85546875
1111110100000101   //-0.7451171875
1111101000000110   //-1.494140625
1111101110010010   //-1.107421875
1110100010001001   //-5.8662109375
0010000111110001   //8.4853515625
0101011101000001   //21.8134765625
1111011000100110   //-2.462890625
0010000101100011   //8.3466796875
1111110110001010   //-0.615234375
1010010010010000   //-22.859375
1110111010111101   //-4.3154296875
1111111001111101   //-0.3779296875
0000100001110001   //2.1103515625
0001111100100111   //7.7880859375
1110111111101001   //-4.0224609375
0000001100101101   //0.7939453125
0000001100100101   //0.7861328125
1111101110011010   //-1.099609375
1111101100111111   //-1.1884765625
1111100100100000   //-1.71875
1110101001101101   //-5.3935546875
1101001000010011   //-11.4814453125
0000001001111101   //0.6220703125
1111000001001011   //-3.9267578125
1111101010101001   //-1.3349609375
1111101110100001   //-1.0927734375
0000011100001010   //1.759765625
1110101010110100   //-5.32421875
0001100101000000   //6.3125
0000000101001000   //0.3203125
0110111101110101   //27.8642578125
1101011000010010   //-10.482421875
1111100011111100   //-1.75390625
1111101010010010   //-1.357421875
1111011101110110   //-2.134765625
0000010111110001   //1.4853515625
0001110011101011   //7.2294921875
0000010000101001   //1.0400390625
1111011111110100   //-2.01171875
1010010000001111   //-22.9853515625
1111111110000000   //-0.125
1111110100010011   //-0.7314453125
1110110010011011   //-4.8486328125
0000000001100010   //0.095703125
1111110000101001   //-0.9599609375
0000000111001100   //0.44921875
0000011010101001   //1.6650390625
0000010001100011   //1.0966796875
0001111000110001   //7.5478515625
0000111000110011   //3.5498046875
1011101010001110   //-17.361328125
1000101110111000   //-29.0703125
0011110010000111   //15.1318359375
1111110101011000   //-0.6640625
0011100011101011   //14.2294921875
1111111100000110   //-0.244140625
1111001101110011   //-3.1376953125
1111100011001101   //-1.7998046875
1100001000101101   //-15.4560546875
0010011110000011   //9.8779296875
1111011010101011   //-2.3330078125
1100100011001110   //-13.798828125
0001001011000101   //4.6923828125
0000000001001111   //0.0771484375
1111110101100101   //-0.6513671875
0000011110100110   //1.912109375
1111010101101111   //-2.6416015625
0000010001111011   //1.1201171875
1110111010011100   //-4.34765625
1101010000010111   //-10.9775390625
1001111101111110   //-24.126953125
1111000010100010   //-3.841796875
1111101100001011   //-1.2392578125
0000101001010010   //2.580078125
1111111010101010   //-0.333984375
1111101011101100   //-1.26953125
1100001101101011   //-15.1455078125
1111101000100111   //-1.4619140625
0000010000100111   //1.0380859375
0000111000100010   //3.533203125
0000010000000010   //1.001953125
0000001100000111   //0.7568359375
1001001111101111   //-27.0166015625
1110110011111101   //-4.7529296875
1111010111010010   //-2.544921875
1110100000101001   //-5.9599609375
0000010010001101   //1.1376953125
1111011011000010   //-2.310546875
1111111110010101   //-0.1044921875
0000110110000100   //3.37890625
0000000100100000   //0.28125
1111101011010110   //-1.291015625
0011010110011110   //13.404296875
1110011100011100   //-6.22265625
1111100110010011   //-1.6064453125
1110011010110110   //-6.322265625
0001101000001100   //6.51171875
1111011001101010   //-2.396484375
0000011000001000   //1.5078125
1100010001000001   //-14.9365234375
1111110100100100   //-0.71484375
1101111010001110   //-8.361328125
0000000111010100   //0.45703125
1111100110110100   //-1.57421875
0000000011001000   //0.1953125
0011011110001001   //13.8837890625
0001000001010101   //4.0830078125
0000001010001000   //0.6328125
0000001000101001   //0.5400390625
0010110011101111   //11.2333984375
0100101101010001   //18.8291015625
1111100010110000   //-1.828125
1110110011100000   //-4.78125
0001000010110101   //4.1767578125
0000010011011000   //1.2109375
1000100101101110   //-29.642578125
1001001011011010   //-27.287109375
1101111010001110   //-8.361328125
0000000111000110   //0.443359375
1110101011111111   //-5.2509765625
0000110111010101   //3.4580078125
1011110010010111   //-16.8525390625
1000100001010101   //-29.9169921875
0000001110001010   //0.884765625
0010001111010110   //8.958984375
1111110010101111   //-0.8291015625
0011110110100111   //15.4130859375
1111111100001001   //-0.2412109375
1111101010110010   //-1.326171875
1110110001110110   //-4.884765625
0001001010110101   //4.6767578125
1001010000101010   //-26.958984375
1111010010111000   //-2.8203125
1101000011101101   //-11.7685546875
1111111110101100   //-0.08203125
0000001001100010   //0.595703125
0000000001101011   //0.1044921875
0000110101001010   //3.322265625
1111101000101010   //-1.458984375
0101100011111110   //22.248046875
1111101000001110   //-1.486328125
1111001101010011   //-3.1689453125
0000110110001101   //3.3876953125
0001111000010011   //7.5185546875
0001000010000111   //4.1318359375
0000000011111100   //0.24609375
1100110000011100   //-12.97265625
0001010000010000   //5.015625
1111101111110110   //-1.009765625
0001111100111110   //7.810546875
1110010100010111   //-6.7275390625
0000111110111110   //3.935546875
0111011010000000   //29.625
1110010110011010   //-6.599609375
0010010100101100   //9.29296875
1111101011110010   //-1.263671875
0100101110100101   //18.9111328125
1101001101101101   //-11.1435546875
1111110000100010   //-0.966796875
1111101100111000   //-1.1953125
0000100011000101   //2.1923828125
0010011110100000   //9.90625
0010111111111001   //11.9931640625
1110111100101101   //-4.2060546875
0000110000000000   //3.0
0111111101101010   //31.853515625
0000100111111011   //2.4951171875
1101111011001101   //-8.2998046875
0000011000011000   //1.5234375
1110011010110100   //-6.32421875
0000100010001010   //2.134765625
1111110000000011   //-0.9970703125
0010111001101110   //11.607421875
1011100011110110   //-17.759765625
0001101111001110   //6.951171875
1010110011111101   //-20.7529296875
1000100111101101   //-29.5185546875
0100111000101010   //19.541015625
1100000011111111   //-15.7509765625
1111001001101001   //-3.3974609375
1100001000110010   //-15.451171875
1111111001111011   //-0.3798828125
0000001001110001   //0.6103515625
1111110101010100   //-0.66796875
0000001001010101   //0.5830078125
1111100001101101   //-1.8935546875
0000001011001000   //0.6953125
0000011110010000   //1.890625
1001101000000100   //-25.49609375
0001100001001010   //6.072265625
0000000110001001   //0.3837890625
1111010111011000   //-2.5390625
0000001100001110   //0.763671875
1110110000000010   //-4.998046875
0001000011000101   //4.1923828125
1000010101111111   //-30.6259765625
1110000110111001   //-7.5693359375
0000000000110110   //0.052734375
0101001011000100   //20.69140625
0000001011111101   //0.7470703125
1111000011000110   //-3.806640625
1111001010010101   //-3.3544921875
1111110111011000   //-0.5390625
0111000011100010   //28.220703125
1111111011000100   //-0.30859375
1110011001000100   //-6.43359375
0011010101011011   //13.3388671875
0000000110000101   //0.3798828125
1110101110110101   //-5.0732421875
0011000000010100   //12.01953125
0000001011010000   //0.703125
0010101001000101   //10.5673828125
1110011110101010   //-6.083984375
0000110001000001   //3.0634765625
1110111100111011   //-4.1923828125
1111110110111100   //-0.56640625
1000001100000000   //-31.25
1100100010101100   //-13.83203125
0000101001110101   //2.6142578125
0001010000100100   //5.03515625
0010100010010110   //10.146484375
1110000001111100   //-7.87890625
0100000100100111   //16.2880859375
0000011001000001   //1.5634765625
1100100011110111   //-13.7587890625
0101010011001100   //21.19921875
1111110100001100   //-0.73828125
0010100000000101   //10.0048828125
1000111010100011   //-28.3408203125
1110110000110011   //-4.9501953125
1111111010111110   //-0.314453125
1010010111000100   //-22.55859375
0000100000100111   //2.0380859375
0000010111010000   //1.453125
0000110000000000   //3.0
0011110011101001   //15.2275390625
1111110010101111   //-0.8291015625
0111110101101001   //31.3525390625
1111011001100110   //-2.400390625
1110000011000001   //-7.8115234375
0000001111001011   //0.9482421875
0000100110011011   //2.4013671875
1000010011011010   //-30.787109375
1110111011101001   //-4.2724609375
0000010110100100   //1.41015625
0000011011001111   //1.7021484375
0010001010011011   //8.6513671875
1111111011110011   //-0.2626953125
1011110101001010   //-16.677734375
1101101001001010   //-9.427734375
1111011010001000   //-2.3671875
1111010110100001   //-2.5927734375
0000010001011100   //1.08984375
1011101001001100   //-17.42578125
0000111101001100   //3.82421875
1111011000010110   //-2.478515625
0010100010111110   //10.185546875
1110111110100010   //-4.091796875
0011111011101101   //15.7314453125
1111110110111010   //-0.568359375
1111001010001011   //-3.3642578125
0100001101111011   //16.8701171875
1110110001000011   //-4.9345703125
1111110100101111   //-0.7041015625
0000010000110110   //1.052734375
1111110101011010   //-0.662109375
1111111110011001   //-0.1005859375
0000010010011001   //1.1494140625
0000000000111101   //0.0595703125
1111101001110111   //-1.3837890625
0010011011101001   //9.7275390625
1011001111001011   //-19.0517578125
0000000001010110   //0.083984375
0010101011111011   //10.7451171875
0011010000000010   //13.001953125
1001100010001001   //-25.8662109375
0000000011001101   //0.2001953125
1111110000110010   //-0.951171875
0000001100111110   //0.810546875
0000000011000010   //0.189453125
0010101011000110   //10.693359375
0000001000101111   //0.5458984375
0000000010001111   //0.1396484375
1111111000011001   //-0.4755859375
0001011011011110   //5.716796875
0111111010100001   //31.6572265625
1111111100110001   //-0.2021484375
0011110110000101   //15.3798828125
0010001111101101   //8.9814453125
0110010111100110   //25.474609375
0001010000111100   //5.05859375
0000001010001101   //0.6376953125
0100000110101001   //16.4150390625
0001011110110001   //5.9228515625
0000010000000110   //1.005859375
1001001100000000   //-27.25
0000000111101011   //0.4794921875
1111110001110011   //-0.8876953125
0000001010111000   //0.6796875
0000100101011011   //2.3388671875
1111000110000101   //-3.6201171875
0000010000011111   //1.0302734375
0000100111111100   //2.49609375
0000110111010110   //3.458984375
0000011010011001   //1.6494140625
1000011111100000   //-30.03125
1111110010011110   //-0.845703125
0000001110011110   //0.904296875
0000010101110010   //1.361328125
0111010110101010   //29.416015625
1111101110110010   //-1.076171875
0001111100011110   //7.779296875
0000001011100101   //0.7236328125
1110010001000110   //-6.931640625
1111011000111011   //-2.4423828125
1111101010110110   //-1.322265625
0010001101101111   //8.8583984375
1111101101000001   //-1.1865234375
1001111111110000   //-24.015625
1111000100110110   //-3.697265625
1111110100101100   //-0.70703125
0010111011110110   //11.740234375
0011010011000010   //13.189453125
0000001011111111   //0.7490234375
0000010100001011   //1.2607421875
1110100111000111   //-5.5556640625
0001100011101100   //6.23046875
1100010000100111   //-14.9619140625
0110000000111010   //24.056640625
1111111111010000   //-0.046875
0000001111001011   //0.9482421875
1010111110011010   //-20.099609375
1111111110111100   //-0.06640625
1101011111011000   //-10.0390625
1111111101001010   //-0.177734375
1110100010110000   //-5.828125
0000111111111010   //3.994140625
1111011011011100   //-2.28515625
1110101000000110   //-5.494140625
0000100110001100   //2.38671875
1111110100011001   //-0.7255859375
0000011011001101   //1.7001953125
1111010100000111   //-2.7431640625
1000111011101111   //-28.2666015625
1100011110011111   //-14.0947265625
0000010001110000   //1.109375
1111111101101000   //-0.1484375
1011110101110101   //-16.6357421875
0000100100100110   //2.287109375
0000100110001001   //2.3837890625
0000010000110011   //1.0498046875
1110101101000110   //-5.181640625
1110100101000000   //-5.6875
1100100101110000   //-13.640625
1001010000001111   //-26.9853515625
0011001001010101   //12.5830078125
1111111010011100   //-0.34765625
1111001110001001   //-3.1162109375
1110100110110011   //-5.5751953125
1110100011100011   //-5.7783203125
1111100011000100   //-1.80859375
0101010101011000   //21.3359375
1111110101100001   //-0.6552734375
0101011000011001   //21.5244140625
1110101100000100   //-5.24609375
1110100101101001   //-5.6474609375
0010010100110011   //9.2998046875
0010001101000111   //8.8193359375
1111110001111101   //-0.8779296875
1100111110011111   //-12.0947265625
0000001000000111   //0.5068359375
0001100000101011   //6.0419921875
1110111011100001   //-4.2802734375
0000010010100000   //1.15625
1111001001001101   //-3.4248046875
0001100000011011   //6.0263671875
0100100100111000   //18.3046875
0100000000010110   //16.021484375
0011011101000101   //13.8173828125
0000001010000111   //0.6318359375
1111110101011101   //-0.6591796875
0100100001101101   //18.1064453125
0011010111001111   //13.4521484375
0011110010101101   //15.1689453125
0001000000011011   //4.0263671875
0000000011011100   //0.21484375
1111100101011011   //-1.6611328125
0000100001111100   //2.12109375
0100010000011110   //17.029296875
0001011100110001   //5.7978515625
0010011110111000   //9.9296875
1010010010111111   //-22.8134765625
1110101011001111   //-5.2978515625
1110001111100000   //-7.03125
0001000010110111   //4.1787109375
1111100010011111   //-1.8447265625
0000011110010110   //1.896484375
0001111110001010   //7.884765625
0000000101001111   //0.3271484375
0000001101000011   //0.8154296875
1111100011110111   //-1.7587890625
1100100011101111   //-13.7666015625
0011001011111110   //12.748046875
1101011011001110   //-10.298828125
1111110011000000   //-0.8125
0000100010000100   //2.12890625
1011101000100101   //-17.4638671875
1111101001010011   //-1.4189453125
1110110011100110   //-4.775390625
1110110101000110   //-4.681640625
1001011010110101   //-26.3232421875
1111101000101101   //-1.4560546875
1110100011100011   //-5.7783203125
1111111000000111   //-0.4931640625
1011110010101111   //-16.8291015625
0100110111101110   //19.482421875
0001010100001011   //5.2607421875
0000000100000110   //0.255859375
1010101001011111   //-21.4072265625
1111101000110101   //-1.4482421875
1111111110101111   //-0.0791015625
1110111100110100   //-4.19921875
0000011101000101   //1.8173828125
0111000110110001   //28.4228515625
1110000001001111   //-7.9228515625
1111100001010100   //-1.91796875
1111101000000100   //-1.49609375
0000100001110011   //2.1123046875
0010011110010111   //9.8974609375
0001101101010100   //6.83203125
0110010011101000   //25.2265625
0000101001001010   //2.572265625
0000001011011001   //0.7119140625
0000111110000010   //3.876953125
0000010011001111   //1.2021484375
0000000101101110   //0.357421875
1110110100111101   //-4.6904296875
0001111000111111   //7.5615234375
0000011100110011   //1.7998046875
1010010111000001   //-22.5615234375
1000111100111010   //-28.193359375
0000100101001110   //2.326171875
0101011101110011   //21.8623046875
0000010111001001   //1.4462890625
1110000100100000   //-7.71875
1111110001001000   //-0.9296875
0011100101001010   //14.322265625
1100100101100100   //-13.65234375
1110000111110101   //-7.5107421875
1111011100011011   //-2.2236328125
1111110010001101   //-0.8623046875
0001001110110011   //4.9248046875
0000000011100000   //0.21875
1111111100011011   //-0.2236328125
0100111100110010   //19.798828125
1111111000110001   //-0.4521484375
0001001101111100   //4.87109375
0000011111101011   //1.9794921875
1111010011011001   //-2.7880859375
0000100100100101   //2.2861328125
1001011111110000   //-26.015625
0010111000101011   //11.5419921875
0010011011001010   //9.697265625
1110110000111111   //-4.9384765625
0000000010100101   //0.1611328125
1101010001101110   //-10.892578125
1111110000111111   //-0.9384765625
0000011101100010   //1.845703125
0000001010100110   //0.662109375
1111101001001111   //-1.4228515625
0000011010101010   //1.666015625
0110100001001111   //26.0771484375
1111010111001001   //-2.5537109375
0000001000100000   //0.53125
0000101000101101   //2.5439453125
0011110010000110   //15.130859375
1110100011111110   //-5.751953125
1111100100010110   //-1.728515625
0000101111001011   //2.9482421875
0010010100100010   //9.283203125
1111111010100001   //-0.3427734375
1101111101000000   //-8.1875
0011111000000110   //15.505859375
0010001000110100   //8.55078125
1111111010011111   //-0.3447265625
1110101100110010   //-5.201171875
0000001011001111   //0.7021484375
0101111010101010   //23.666015625
0000011000000011   //1.5029296875
1101101100111001   //-9.1943359375
0000001010111101   //0.6845703125
1000100101100011   //-29.6533203125
1111110111000110   //-0.556640625
0000001100110010   //0.798828125
1110010111101000   //-6.5234375
0110011101010001   //25.8291015625
1110010001010110   //-6.916015625
1111111010010010   //-0.357421875
0010110101101011   //11.3544921875
0000111010101000   //3.6640625
0000001110101011   //0.9169921875
0001100100110100   //6.30078125
0000011001010111   //1.5849609375
1111101001000011   //-1.4345703125
0000110000110000   //3.046875
0101101110000000   //22.875
1111011110010011   //-2.1064453125
1101000101101010   //-11.646484375
0101101001100001   //22.5947265625
1011100011000011   //-17.8095703125
1000011111100011   //-30.0283203125
1111010011111000   //-2.7578125
1111011100110100   //-2.19921875
1111011101010001   //-2.1708984375
0000100110101001   //2.4150390625
1100001011011100   //-15.28515625
0010010111010101   //9.4580078125
1111100010110010   //-1.826171875
1111111010000000   //-0.375
0000000100110000   //0.296875
0000000011111010   //0.244140625
1111110000101011   //-0.9580078125
1111010111101001   //-2.5224609375
0000000011010011   //0.2060546875
0000011001101110   //1.607421875
0000010101001000   //1.3203125
0001010111100111   //5.4755859375
1111010110110101   //-2.5732421875
1110111001010010   //-4.419921875
0001110010000000   //7.125
0100011001110110   //17.615234375
0000111011101001   //3.7275390625
1100000110101001   //-15.5849609375
1111011010110110   //-2.322265625
0010000101100111   //8.3505859375
0000010101000100   //1.31640625
1111011100111001   //-2.1943359375
1111111000010001   //-0.4833984375
1111100100000101   //-1.7451171875
0100000010111101   //16.1845703125
1000110101010010   //-28.669921875
1111111011000010   //-0.310546875
1110010110001001   //-6.6162109375
1101111101010111   //-8.1650390625
0001100111001101   //6.4501953125
1111000111000000   //-3.5625
1011011110010010   //-18.107421875
0000100100000111   //2.2568359375
0011110010100110   //15.162109375
1111000101101110   //-3.642578125
1111110111001000   //-0.5546875
0111001001000110   //28.568359375
1111101111110001   //-1.0146484375
0111110010010101   //31.1455078125
1110011100111001   //-6.1943359375
0000011001011000   //1.5859375
0000000011001111   //0.2021484375
0000010010100010   //1.158203125
0110010010110001   //25.1728515625
0000001101001001   //0.8212890625
0000000110001101   //0.3876953125
1111101111100101   //-1.0263671875
1100101000111010   //-13.443359375
0000101011101111   //2.7333984375
1110100001110000   //-5.890625
1111111011101001   //-0.2724609375
1111110100011101   //-0.7216796875
1111100100100011   //-1.7158203125
0010111100011100   //11.77734375
1110010101111100   //-6.62890625
0100111100100110   //19.787109375
0111100110011011   //30.4013671875
1110101111111010   //-5.005859375
0000100100101100   //2.29296875
0110000100001100   //24.26171875
0000011111011010   //1.962890625
0000011010010000   //1.640625
0111110110110110   //31.427734375
0001100000110000   //6.046875
0000100101011111   //2.3427734375
0001100111001011   //6.4482421875
1111111110111010   //-0.068359375
1111111100000111   //-0.2431640625
1110111111100101   //-4.0263671875
1101110000100111   //-8.9619140625
0101001101100000   //20.84375
1001000001110100   //-27.88671875
1111100011111010   //-1.755859375
0000000000111110   //0.060546875
0000111010001010   //3.634765625
1110010000100101   //-6.9638671875
0100000111001100   //16.44921875
0100000110001101   //16.3876953125
0001001100000001   //4.7509765625
0000000100001011   //0.2607421875
1111011001110010   //-2.388671875
1100101001001110   //-13.423828125
0000001100100001   //0.7822265625
1111111010100111   //-0.3369140625
0000010001010001   //1.0791015625
0000100100111001   //2.3056640625
0010000101100011   //8.3466796875
0101110001000001   //23.0634765625
0000001100000011   //0.7529296875
0000000010110100   //0.17578125
0011101011011001   //14.7119140625
0000000100101001   //0.2900390625
1110110010101111   //-4.8291015625
1111111001110000   //-0.390625
0010101101110100   //10.86328125
1111110011111010   //-0.755859375
1111110100010001   //-0.7333984375
1111101111101111   //-1.0166015625
0001111110011000   //7.8984375
1111011011101110   //-2.267578125
1100001110110001   //-15.0771484375
0000001101110110   //0.865234375
1110101110010000   //-5.109375
0010100100000101   //10.2548828125
0000001100110111   //0.8037109375
1111101001100000   //-1.40625
0001000010101101   //4.1689453125
1111110000011101   //-0.9716796875
1110100010100001   //-5.8427734375
1011100000000111   //-17.9931640625
1010011110010001   //-22.1083984375
1110110101111011   //-4.6298828125
0000000010000111   //0.1318359375
0000011010011100   //1.65234375
0001010111110101   //5.4892578125
1110011101101010   //-6.146484375
1001110001100010   //-24.904296875
1111011111100001   //-2.0302734375
0000010101100010   //1.345703125
1111111010111001   //-0.3193359375
0000101010010000   //2.640625
0010110110111110   //11.435546875
1111011101010110   //-2.166015625
0000001101101110   //0.857421875
1111111100111111   //-0.1884765625
0110111010001110   //27.638671875
1111110010010101   //-0.8544921875
0000101000100011   //2.5341796875
1101100100110000   //-9.703125
0011000001100110   //12.099609375
1010010110000100   //-22.62109375
0100010011010101   //17.2080078125
0000011100101100   //1.79296875
1011001110001011   //-19.1142578125
0011010000010100   //13.01953125
1111110100001001   //-0.7412109375
0000001011100101   //0.7236328125
0001000010001001   //4.1337890625
1000111010001101   //-28.3623046875
1101101101010111   //-9.1650390625
1111110111001010   //-0.552734375
1001000000001101   //-27.9873046875
1111100111110100   //-1.51171875
0000010100011111   //1.2802734375
1111111100111011   //-0.1923828125
0000111010111000   //3.6796875
0000011010011101   //1.6533203125
1111111101100001   //-0.1552734375
1111010010101101   //-2.8310546875
0000000010110101   //0.1767578125
0000000111100011   //0.4716796875
1111110101001101   //-0.6748046875
0111000110101110   //28.419921875
1111011001001111   //-2.4228515625
1111011000011110   //-2.470703125
1111111110100110   //-0.087890625
1101101110010100   //-9.10546875
1001000100100000   //-27.71875
0010001000000000   //8.5
1110110101111011   //-4.6298828125
0000001100101110   //0.794921875
1111110001101110   //-0.892578125
0000010010001100   //1.13671875
0000011001110111   //1.6162109375
1000111000101100   //-28.45703125
1111110010111011   //-0.8173828125
1111011100100000   //-2.21875
1111111101011010   //-0.162109375
1011011101100110   //-18.150390625
1110111000000001   //-4.4990234375
1101101110110100   //-9.07421875
1010110100011011   //-20.7236328125
0010011001011011   //9.5888671875
0000010000100111   //1.0380859375
1000111101110000   //-28.140625
1110101000110010   //-5.451171875
0000000100010011   //0.2685546875
1111110101101101   //-0.6435546875
0000111110101100   //3.91796875
0010001111001010   //8.947265625
1111101010001011   //-1.3642578125
0000010001010011   //1.0810546875
0000000001011100   //0.08984375
1000100011111101   //-29.7529296875
1111101100010000   //-1.234375
1110100111010100   //-5.54296875
1111111111101111   //-0.0166015625
1111110110011001   //-0.6005859375
0000110110110001   //3.4228515625
0101110111000010   //23.439453125
0000001101111101   //0.8720703125
0000110011001110   //3.201171875
1110110101100011   //-4.6533203125
1101110100100111   //-8.7119140625
1000110101011010   //-28.662109375
0000110110100000   //3.40625
1110011101111111   //-6.1259765625
1010110010110000   //-20.828125
1111101001000111   //-1.4306640625
1111110100000011   //-0.7470703125
0000011100100110   //1.787109375
1111101100111111   //-1.1884765625
1111100101111100   //-1.62890625
0000011110111011   //1.9326171875
0001000011001101   //4.2001953125
1001100010001111   //-25.8603515625
0101100111111000   //22.4921875
0100110011001111   //19.2021484375
1111111110001100   //-0.11328125
1111110010011010   //-0.849609375
1111111100111000   //-0.1953125
1111111100010001   //-0.2333984375
0000010001100101   //1.0986328125
1010100101110001   //-21.6396484375
0000000001001011   //0.0732421875
0000010100010111   //1.2724609375
1111111010101001   //-0.3349609375
1111111110101100   //-0.08203125
1111100001010000   //-1.921875
1110101100101000   //-5.2109375
0000011111110100   //1.98828125
1111101010010000   //-1.359375
0001111000001001   //7.5087890625
0000000000100000   //0.03125
0001111100111111   //7.8115234375
1111111101011101   //-0.1591796875
0101111101011101   //23.8408203125
0001010110011100   //5.40234375
0000110101000011   //3.3154296875
0001000111110101   //4.4892578125
1100110111111000   //-12.5078125
1011011111010010   //-18.044921875
0000111110110110   //3.927734375
1111101101001100   //-1.17578125
0011001001100100   //12.59765625
1000001000100100   //-31.46484375
1111111110000001   //-0.1240234375
0011010001000011   //13.0654296875
0001101011001010   //6.697265625
0001011000000101   //5.5048828125
1101001011100111   //-11.2744140625
0000001101100010   //0.845703125
0000100100001000   //2.2578125
1110100100011000   //-5.7265625
0000000100011001   //0.2744140625
1111100101110010   //-1.638671875
0010101100011011   //10.7763671875
0000100000000000   //2.0
0000001100000001   //0.7509765625
0010011100010110   //9.771484375
0000001001111110   //0.623046875
1111111101001100   //-0.17578125
0000010000001100   //1.01171875
0001101110011111   //6.9052734375
1111110111011010   //-0.537109375
1111101100101010   //-1.208984375
1101100011100011   //-9.7783203125
1110011101110000   //-6.140625
1111101011000100   //-1.30859375
1110101010011100   //-5.34765625
1111101110011110   //-1.095703125
0110011011111110   //25.748046875
1010111011000100   //-20.30859375
1101011110100110   //-10.087890625
1111111111101001   //-0.0224609375
1111110100101010   //-0.708984375
1000101011011010   //-29.287109375
0000010100111101   //1.3095703125
0000010001001110   //1.076171875
1110111111010100   //-4.04296875
1111010111011010   //-2.537109375
0000000011100111   //0.2255859375
0010000011101010   //8.228515625
1110010011000101   //-6.8076171875
0010110100101000   //11.2890625
0001000111001110   //4.451171875
1111111011010010   //-0.294921875
0000100111000101   //2.4423828125
1100110110111001   //-12.5693359375
0000000101111010   //0.369140625
0001010010110011   //5.1748046875
0101101110100000   //22.90625
0000111101100000   //3.84375
0000001000101101   //0.5439453125
0000111010111110   //3.685546875
0110011001010110   //25.583984375
0000011110010100   //1.89453125
1111111110011101   //-0.0966796875
1111011111000000   //-2.0625
0000100001010110   //2.083984375
0010011011010111   //9.7099609375
1111101111000101   //-1.0576171875
0011110100011111   //15.2802734375
1111110101010001   //-0.6708984375
1111110001110011   //-0.8876953125
0000011101011100   //1.83984375
1101101001101111   //-9.3916015625
1111110011001101   //-0.7998046875
0011010110101101   //13.4189453125
0100010100001101   //17.2626953125
0000010010111111   //1.1865234375
1100111010101111   //-12.3291015625
1111111010101110   //-0.330078125
0000000101001111   //0.3271484375
0001011111111001   //5.9931640625
1110000001111100   //-7.87890625
0000101010011100   //2.65234375
1111101001010011   //-1.4189453125
0000010010100101   //1.1611328125
1110001010001001   //-7.3662109375
1111111010111100   //-0.31640625
1101011111010010   //-10.044921875
1111100101110010   //-1.638671875
1100010101101010   //-14.646484375
0000111001001010   //3.572265625
0101000111000010   //20.439453125
1111111011111110   //-0.251953125
0000101011000000   //2.6875
1111101000100110   //-1.462890625
0010101100111011   //10.8076171875
0001010011101000   //5.2265625
0000110000011000   //3.0234375
0000010001111110   //1.123046875
1101001000011011   //-11.4736328125
1111110010010101   //-0.8544921875
1101111111101110   //-8.017578125
0000101111010001   //2.9541015625
0001001000001100   //4.51171875
0011010101001010   //13.322265625
1101011110100000   //-10.09375
1101110111100101   //-8.5263671875
1111001011000110   //-3.306640625
1110100110010100   //-5.60546875
1110110001001001   //-4.9287109375
0000101010101111   //2.6708984375
0000110001101111   //3.1083984375
0110011100001111   //25.7646484375
1000111111001001   //-28.0537109375
0110001111101100   //24.98046875
1011101110001010   //-17.115234375
0000001101000011   //0.8154296875
1111111100001011   //-0.2392578125
0001100011111000   //6.2421875
1101101100001011   //-9.2392578125
0000010000101010   //1.041015625
0101001001011010   //20.587890625
0000001100001110   //0.763671875
0101001000001000   //20.5078125
0111110000110100   //31.05078125
1010001000110111   //-23.4462890625
0000001010010100   //0.64453125
0000010110000110   //1.380859375
0001110101100110   //7.349609375
0000000100000010   //0.251953125
0000001111100000   //0.96875
1100011110101110   //-14.080078125
0110110101100000   //27.34375
1101000111110011   //-11.5126953125
0000001111101100   //0.98046875
1100100100101000   //-13.7109375
0000000101010111   //0.3349609375
1110111101110001   //-4.1396484375
0001110101111111   //7.3740234375
0000011001101001   //1.6025390625
0111101010010011   //30.6435546875
0000110000010111   //3.0224609375
1111101111000111   //-1.0556640625
0000101000011001   //2.5244140625
0000000101011101   //0.3408203125
0000000010000111   //0.1318359375
0001010001010001   //5.0791015625
1000010100011111   //-30.7197265625
1100100111110100   //-13.51171875
1000101000000111   //-29.4931640625
0000011010000100   //1.62890625
1111110000000100   //-0.99609375
0111111101010010   //31.830078125
0000110101100001   //3.3447265625
1111101000111100   //-1.44140625
1111110011010010   //-0.794921875
1111100011001000   //-1.8046875
1101111101101010   //-8.146484375
0101100101000101   //22.3173828125
1101000011110111   //-11.7587890625
0001000100111001   //4.3056640625
1110110001111011   //-4.8798828125
1110001101001010   //-7.177734375
0000111100000111   //3.7568359375
0000111010011000   //3.6484375
0000000010100001   //0.1572265625
0000010100011111   //1.2802734375
1111001100011111   //-3.2197265625
0000100001011111   //2.0927734375
1111000011000010   //-3.810546875
0001011001100100   //5.59765625
0000110000010001   //3.0166015625
1111110000010100   //-0.98046875
0000010001110000   //1.109375
1010001111100001   //-23.0302734375
1010011001011011   //-22.4111328125
1111101011001010   //-1.302734375
0011101100010001   //14.7666015625
1111111010111000   //-0.3203125
0000000011010001   //0.2041015625
1111111001111010   //-0.380859375
1111110000110101   //-0.9482421875
1011111101100111   //-16.1494140625
0000001010010101   //0.6455078125
1111000101110011   //-3.6376953125
0000100001000110   //2.068359375
1111100010110100   //-1.82421875
0000100111000000   //2.4375
0000010001110001   //1.1103515625
0010001101010000   //8.828125
1111011011111011   //-2.2548828125
0010111100111111   //11.8115234375
1111011011011100   //-2.28515625
0010000011101110   //8.232421875
0011011111110111   //13.9912109375
1100110101100100   //-12.65234375
0001011000011100   //5.52734375
1001000111111101   //-27.5029296875
0000001100001001   //0.7587890625
0111101110001011   //30.8857421875
1000011000100001   //-30.4677734375
1110101111111011   //-5.0048828125
1111110111011001   //-0.5380859375
0100000001110001   //16.1103515625
1111110101010110   //-0.666015625
1110110110111110   //-4.564453125
0000001011101110   //0.732421875
0000001110001110   //0.888671875
0000101101011101   //2.8408203125
0000101111110111   //2.9912109375
1110100010010001   //-5.8583984375
0000100111001101   //2.4501953125
1101010011110101   //-10.7607421875
0000110000010010   //3.017578125
1101101010011010   //-9.349609375
1111100110010011   //-1.6064453125
1111111001011111   //-0.4072265625
1111011110001010   //-2.115234375
0000001110110110   //0.927734375
1011000010001000   //-19.8671875
0000001101100100   //0.84765625
1000110010011001   //-28.8505859375
0000001101001110   //0.826171875
1111001110000010   //-3.123046875
0101011001010010   //21.580078125
1111100011111001   //-1.7568359375
0010000101010010   //8.330078125
0101001001001110   //20.576171875
1111110000100110   //-0.962890625
1111011111000001   //-2.0615234375
1100111100011011   //-12.2236328125
0100110010110010   //19.173828125
1111100011101111   //-1.7666015625
1111010101000001   //-2.6865234375
1101100101110111   //-9.6337890625
0000100111000110   //2.443359375
1100110101010100   //-12.66796875
1100010111011010   //-14.537109375
1100101110000000   //-13.125
1111111101000110   //-0.181640625
1111011111001010   //-2.052734375
1111110101100101   //-0.6513671875
1111110110011111   //-0.5947265625
0010100101010010   //10.330078125
0101000100011101   //20.2783203125
1110101101100101   //-5.1513671875
1001001101000001   //-27.1865234375
0100101111101011   //18.9794921875
0011001110101100   //12.91796875
0000011010000001   //1.6259765625
0110001001010100   //24.58203125
0000010001101010   //1.103515625
1111010111101101   //-2.5185546875
0010101111010111   //10.9599609375
1001110010101001   //-24.8349609375
0000111000111001   //3.5556640625
0000000111001011   //0.4482421875
0010101010111011   //10.6826171875
1111111101000011   //-0.1845703125
1111111010011101   //-0.3466796875
0101100101100001   //22.3447265625
0110011111011110   //25.966796875
0000000101100100   //0.34765625
0000111100101010   //3.791015625
1101001100111111   //-11.1884765625
1111011010111110   //-2.314453125
1101010001111000   //-10.8828125
0000100001011111   //2.0927734375
0010011011101010   //9.728515625
1111111011000101   //-0.3076171875
0000001000011110   //0.529296875
1010101000001010   //-21.490234375
1110011101100100   //-6.15234375
1010111011111111   //-20.2509765625
0011000011101100   //12.23046875
1101011000000101   //-10.4951171875
1101010111111111   //-10.5009765625
1111110011111110   //-0.751953125
0001100100010010   //6.267578125
0100100100110100   //18.30078125
0000000010011111   //0.1552734375
0000111001000100   //3.56640625
1000010000010011   //-30.9814453125
0000001001000101   //0.5673828125
0101100010011000   //22.1484375
1111101101011100   //-1.16015625
1111111110101001   //-0.0849609375
1010001100111001   //-23.1943359375
1111110010011011   //-0.8486328125
0000000100010101   //0.2705078125
1111110101100101   //-0.6513671875
1111111100111011   //-0.1923828125
0000000000100111   //0.0380859375
0001101101101100   //6.85546875
1111111100010101   //-0.2294921875
0000001110001010   //0.884765625
0001111001100001   //7.5947265625
1111110111110010   //-0.513671875
0011101001001011   //14.5732421875
0110111100101100   //27.79296875
1001101101110011   //-25.1376953125
0000001110000011   //0.8779296875
1011010011011101   //-18.7841796875
1111110101111000   //-0.6328125
1111010001001100   //-2.92578125
0011111001100000   //15.59375
0011010000011100   //13.02734375
1111100011100111   //-1.7744140625
1111100010000100   //-1.87109375
0000101100001010   //2.759765625
0011011000100101   //13.5361328125
0001000101011100   //4.33984375
1111110001000010   //-0.935546875
1110011111001001   //-6.0537109375
1111111000111111   //-0.4384765625
0110111111000111   //27.9443359375
0010010011100010   //9.220703125
0011010110111010   //13.431640625
1111110001101001   //-0.8974609375
1101011110001000   //-10.1171875
1111110001000000   //-0.9375
0000011000010110   //1.521484375
0011100010100000   //14.15625
1101111011000110   //-8.306640625
0001110010111000   //7.1796875
0000110010010100   //3.14453125
0011110010101000   //15.1640625
1111101100111000   //-1.1953125
1111000001101000   //-3.8984375
0110110000001010   //27.009765625
0001110101010111   //7.3349609375
1101110000101000   //-8.9609375
0000011010110011   //1.6748046875
1111100001000000   //-1.9375
0000010000100101   //1.0361328125
0000000110100101   //0.4111328125
0000111011011100   //3.71484375
1111100110101000   //-1.5859375
0000000100100100   //0.28515625
0000110100101101   //3.2939453125
0001011011001101   //5.7001953125
0000000011111000   //0.2421875
0000001011111001   //0.7431640625
0000101100010001   //2.7666015625
1111111010100001   //-0.3427734375
0010011101101010   //9.853515625
0000010001001010   //1.072265625
1111110101010011   //-0.6689453125
0010011011101011   //9.7294921875
1111110111101111   //-0.5166015625
1111011100011100   //-2.22265625
0000100010111111   //2.1865234375
0001011101000111   //5.8193359375
0010110001001011   //11.0732421875
0000101100000110   //2.755859375
0010110001100100   //11.09765625
1111000000000001   //-3.9990234375
0010110111100011   //11.4716796875
1000011010010001   //-30.3583984375
1010000011001010   //-23.802734375
0000100010011010   //2.150390625
1100111001000010   //-12.435546875
1111111101001001   //-0.1787109375
1111110101101010   //-0.646484375
0001011100010010   //5.767578125
1111110010100000   //-0.84375
1111001111010000   //-3.046875
0000111111100100   //3.97265625
0001100101010000   //6.328125
1100100111110000   //-13.515625
1110010011110010   //-6.763671875
1111110011001001   //-0.8037109375
0000010101101101   //1.3564453125
0010011110010011   //9.8935546875
0000000001011001   //0.0869140625
1111011100000110   //-2.244140625
1110001100100001   //-7.2177734375
1111100111111110   //-1.501953125
1100001111110100   //-15.01171875
1111110100001110   //-0.736328125
1111011110111001   //-2.0693359375
1110000110000010   //-7.623046875
1100111101001000   //-12.1796875
0000010001111010   //1.119140625
0010110100010011   //11.2685546875
0000000001111010   //0.119140625
1110101100000111   //-5.2431640625
0011001110010110   //12.896484375
1111111101000110   //-0.181640625
1110010100101001   //-6.7099609375
1111100011011000   //-1.7890625
0001011100111000   //5.8046875
